...
-1.6 -1.3
-1.6 -1.3 4074.1979999999994
-1.6 -1.2
-1.6 -1.2 4000.1119999999996
-1.6 -1.1
-1.6 -1.1 4012.3639999999996
-1.6 -1.0
-1.6 -1.0 4085.457999999999
-1.6 -0.9
-1.6 -0.9 4066.267999999999
-1.6 -0.8
-1.6 -0.8 4111.889999999999
-1.6 -0.7
-1.6 -0.7 4105.005999999999
-1.6 -0.6
-1.6 -0.6 4099.929999999999
-1.6 -0.5
-1.6 -0.5 4196.922
-1.6 -0.4
-1.6 -0.4 4196.922
-1.6 -0.3
-1.6 -0.3 4190.932
-1.6 -0.2
-1.6 -0.2 4190.932
-1.6 -0.1
-1.6 -0.1 4190.237999999999
-1.6 0.0
-1.6 0.0 4120.678
-1.6 0.1
-1.6 0.1 4120.678
-1.6 0.2
-1.6 0.2 4185.027999999999
-1.6 0.3
-1.6 0.3 4090.4819999999995
-1.6 0.4
-1.6 0.4 4090.4819999999995
-1.6 0.5
-1.6 0.5 4128.476
-1.6 0.6
-1.6 0.6 4141.534000000001
-1.6 0.7
-1.6 0.7 4119.596
-1.6 0.8
-1.6 0.8 4124.094
-1.6 0.9
-1.6 0.9 4142.864
-1.6 1.0
-1.6 1.0 4128.936
-1.6 1.1
-1.6 1.1 4153.0199999999995
-1.6 1.2
-1.6 1.2 4153.0199999999995
-1.6 1.3
-1.6 1.3 4111.36
-1.6 1.4
-1.6 1.4 4102.538
-1.6 1.5
-1.6 1.5 4162.638
-1.6 1.6
-1.6 1.6 4295.004
-1.6 1.7
-1.6 1.7 4264.244
-1.6 1.8
-1.6 1.8 4264.244
-1.6 1.9
-1.6 1.9 4265.43
-1.6 2.0
-1.6 2.0 4282.184
-1.6 2.1
-1.6 2.1 4295.686
-1.6 2.2
-1.6 2.2 4295.686
-1.6 2.3
-1.6 2.3 4164.736
-1.6 2.4
-1.6 2.4 4164.736
-1.6 2.5
-1.6 2.5 4151.558
-1.6 2.6
-1.6 2.6 4205.81
-1.6 2.7
-1.6 2.7 4205.286
-1.6 2.8
-1.6 2.8 4205.286
-1.6 2.9
-1.6 2.9 4140.007999999999
-1.5 -3.0
-1.5 -3.0 3953.4689999999996
-1.5 -2.9
-1.5 -2.9 3952.8569999999995
-1.5 -2.8
-1.5 -2.8 3952.8569999999995
-1.5 -2.7
-1.5 -2.7 3952.8569999999995
-1.5 -2.6
-1.5 -2.6 3952.8569999999995
-1.5 -2.5
-1.5 -2.5 3972.5549999999994
-1.5 -2.4
-1.5 -2.4 3972.5549999999994
-1.5 -2.3
-1.5 -2.3 3965.4999999999995
-1.5 -2.2
-1.5 -2.2 4020.6459999999993
-1.5 -2.1
-1.5 -2.1 4040.0259999999994
-1.5 -2.0
-1.5 -2.0 4040.0259999999994
-1.5 -1.9
-1.5 -1.9 4040.9539999999997
-1.5 -1.8
-1.5 -1.8 4049.874
-1.5 -1.7
-1.5 -1.7 3971.5959999999995
-1.5 -1.6
-1.5 -1.6 3971.5959999999995
-1.5 -1.5
-1.5 -1.5 4038.084
-1.5 -1.4
-1.5 -1.4 4038.084
-1.5 -1.3
-1.5 -1.3 4038.084
-1.5 -1.2
-1.5 -1.2 3976.2499999999995
-1.5 -1.1
-1.5 -1.1 4049.3439999999996
-1.5 -1.0
-1.5 -1.0 4049.3439999999996
-1.5 -0.9
-1.5 -0.9 4030.1539999999995
-1.5 -0.8
-1.5 -0.8 4078.6079999999993
-1.5 -0.7
-1.5 -0.7 4139.889999999999
-1.5 -0.6
-1.5 -0.6 4163.967999999999
-1.5 -0.5
-1.5 -0.5 4196.922
-1.5 -0.4
-1.5 -0.4 4196.922
-1.5 -0.3
-1.5 -0.3 4190.932
-1.5 -0.2
-1.5 -0.2 4190.932
-1.5 -0.1
-1.5 -0.1 4158.874999999999
-1.5 0.0
-1.5 0.0 4120.678
-1.5 0.1
-1.5 0.1 4120.678
-1.5 0.2
-1.5 0.2 4185.027999999999
-1.5 0.3
-1.5 0.3 4075.3199999999993
-1.5 0.4
-1.5 0.4 4090.4819999999995
-1.5 0.5
-1.5 0.5 4089.526
-1.5 0.6
-1.5 0.6 4141.534000000001
-1.5 0.7
-1.5 0.7 4145.254
-1.5 0.8
-1.5 0.8 4144.592
-1.5 0.9
-1.5 0.9 4204.316
-1.5 1.0
-1.5 1.0 4191.588
-1.5 1.1
-1.5 1.1 4086.8639999999996
-1.5 1.2
-1.5 1.2 4086.8639999999996
-1.5 1.3
-1.5 1.3 4101.91
-1.5 1.4
-1.5 1.4 4125.911999999999
-1.5 1.5
-1.5 1.5 4303.446
-1.5 1.6
-1.5 1.6 4181.719999999999
-1.5 1.7
-1.5 1.7 4189.494
-1.5 1.8
-1.5 1.8 4201.034
-1.5 1.9
-1.5 1.9 4233.008
-1.5 2.0
-1.5 2.0 4263.254
-1.5 2.1
-1.5 2.1 4173.0019999999995
-1.5 2.2
-1.5 2.2 4164.736
-1.5 2.3
-1.5 2.3 4189.138
-1.5 2.4
-1.5 2.4 4151.558
-1.5 2.5
-1.5 2.5 4151.558
-1.5 2.6
-1.5 2.6 4205.286
-1.5 2.7
-1.5 2.7 4205.286
-1.5 2.8
-1.5 2.8 4205.81
-1.5 2.9
-1.5 2.9 4368.709999999999
-1.4 -3.0
-1.4 -3.0 3917.3249999999994
-1.4 -2.9
-1.4 -2.9 3963.3969999999995
-1.4 -2.8
-1.4 -2.8 3952.8569999999995
-1.4 -2.7
-1.4 -2.7 3952.8569999999995
-1.4 -2.6
-1.4 -2.6 3952.8569999999995
-1.4 -2.5
-1.4 -2.5 3999.417
-1.4 -2.4
-1.4 -2.4 3991.2749999999996
-1.4 -2.3
-1.4 -2.3 3984.2199999999993
-1.4 -2.2
-1.4 -2.2 3965.4999999999995
-1.4 -2.1
-1.4 -2.1 3965.4999999999995
-1.4 -2.0
-1.4 -2.0 4054.6219999999994
-1.4 -1.9
-1.4 -1.9 4041.032
-1.4 -1.8
-1.4 -1.8 4054.247999999999
-1.4 -1.7
-1.4 -1.7 3996.198
-1.4 -1.6
-1.4 -1.6 3971.5959999999995
-1.4 -1.5
-1.4 -1.5 4038.084
-1.4 -1.4
-1.4 -1.4 4038.084
-1.4 -1.3
-1.4 -1.3 4038.084
-1.4 -1.2
-1.4 -1.2 4095.7619999999997
-1.4 -1.1
-1.4 -1.1 4095.7619999999997
-1.4 -1.0
-1.4 -1.0 4049.3439999999996
-1.4 -0.9
-1.4 -0.9 4030.1539999999995
-1.4 -0.8
-1.4 -0.8 4070.4139999999998
-1.4 -0.7
-1.4 -0.7 4115.016
-1.4 -0.6
-1.4 -0.6 4165.936
-1.4 -0.5
-1.4 -0.5 4145.996
-1.4 -0.4
-1.4 -0.4 4167.589999999999
-1.4 -0.3
-1.4 -0.3 4247.03
-1.4 -0.2
-1.4 -0.2 4158.874999999999
-1.4 -0.1
-1.4 -0.1 4158.874999999999
-1.4 0.0
-1.4 0.0 4120.678
-1.4 0.1
-1.4 0.1 4185.027999999999
-1.4 0.2
-1.4 0.2 4075.3199999999993
-1.4 0.3
-1.4 0.3 4075.3199999999993
-1.4 0.4
-1.4 0.4 4088.3779999999992
-1.4 0.5
-1.4 0.5 4076.5919999999996
-1.4 0.6
-1.4 0.6 4091.0209999999997
-1.4 0.7
-1.4 0.7 4152.191999999999
-1.4 0.8
-1.4 0.8 4144.592
-1.4 0.9
-1.4 0.9 4164.316
-1.4 1.0
-1.4 1.0 4221.474
-1.4 1.1
-1.4 1.1 4103.05
-1.4 1.2
-1.4 1.2 4103.05
-1.4 1.3
-1.4 1.3 4134.734
-1.4 1.4
-1.4 1.4 4172.474
-1.4 1.5
-1.4 1.5 4313.281999999999
-1.4 1.6
-1.4 1.6 4209.788
-1.4 1.7
-1.4 1.7 4327.214
-1.4 1.8
-1.4 1.8 4282.94
-1.4 1.9
-1.4 1.9 4100.968
-1.4 2.0
-1.4 2.0 4002.808
-1.4 2.1
-1.4 2.1 4131.063999999999
-1.4 2.2
-1.4 2.2 4090.0979999999995
-1.4 2.3
-1.4 2.3 4251.57
-1.4 2.4
-1.4 2.4 4251.57
-1.4 2.5
-1.4 2.5 4149.526
-1.4 2.6
-1.4 2.6 4273.472
-1.4 2.7
-1.4 2.7 4368.709999999999
-1.4 2.8
-1.4 2.8 4368.709999999999
-1.4 2.9
-1.4 2.9 4368.709999999999
-1.3 -3.0
-1.3 -3.0 3917.3249999999994
-1.3 -2.9
-1.3 -2.9 3963.3969999999995
-1.3 -2.8
-1.3 -2.8 3963.3969999999995
-1.3 -2.7
-1.3 -2.7 3963.3969999999995
-1.3 -2.6
-1.3 -2.6 3952.8569999999995
-1.3 -2.5
-1.3 -2.5 3952.8569999999995
-1.3 -2.4
-1.3 -2.4 3999.417
-1.3 -2.3
-1.3 -2.3 3991.2749999999996
-1.3 -2.2
-1.3 -2.2 3984.2199999999993
-1.3 -2.1
-1.3 -2.1 3984.2199999999993
-1.3 -2.0
-1.3 -2.0 3936.825999999999
-1.3 -1.9
-1.3 -1.9 4021.1179999999995
-1.3 -1.8
-1.3 -1.8 4021.1179999999995
-1.3 -1.7
-1.3 -1.7 4054.247999999999
-1.3 -1.6
-1.3 -1.6 3971.5959999999995
-1.3 -1.5
-1.3 -1.5 3971.5959999999995
-1.3 -1.4
-1.3 -1.4 4120.7919999999995
-1.3 -1.3
-1.3 -1.3 4136.392
-1.3 -1.2
-1.3 -1.2 4095.7619999999997
-1.3 -1.1
-1.3 -1.1 4095.7619999999997
-1.3 -1.0
-1.3 -1.0 4030.1539999999995
-1.3 -0.9
-1.3 -0.9 4070.4139999999998
-1.3 -0.8
-1.3 -0.8 4070.4139999999998
-1.3 -0.7
-1.3 -0.7 4180.563999999999
-1.3 -0.6
-1.3 -0.6 4165.936
-1.3 -0.5
-1.3 -0.5 4105.107999999999
-1.3 -0.4
-1.3 -0.4 4142.079999999999
-1.3 -0.3
-1.3 -0.3 4171.268999999999
-1.3 -0.2
-1.3 -0.2 4214.972999999999
-1.3 -0.1
-1.3 -0.1 4202.4929999999995
-1.3 0.0
-1.3 0.0 4136.855999999999
-1.3 0.1
-1.3 0.1 4185.027999999999
-1.3 0.2
-1.3 0.2 4075.3199999999993
-1.3 0.3
-1.3 0.3 4063.6249999999995
-1.3 0.4
-1.3 0.4 4063.6249999999995
-1.3 0.5
-1.3 0.5 4003.8869999999997
-1.3 0.6
-1.3 0.6 4056.1089999999995
-1.3 0.7
-1.3 0.7 4166.468
-1.3 0.8
-1.3 0.8 4117.54
-1.3 0.9
-1.3 0.9 4169.679999999999
-1.3 1.0
-1.3 1.0 4162.504
-1.3 1.1
-1.3 1.1 4071.1940000000004
-1.3 1.2
-1.3 1.2 4121.162
-1.3 1.3
-1.3 1.3 4171.46
-1.3 1.4
-1.3 1.4 4172.474
-1.3 1.5
-1.3 1.5 4206.332
-1.3 1.6
-1.3 1.6 4116.004
-1.3 1.7
-1.3 1.7 4115.679999999999
-1.3 1.8
-1.3 1.8 4127.702
-1.3 1.9
-1.3 1.9 4082.3419999999996
-1.3 2.0
-1.3 2.0 4082.3419999999996
-1.3 2.1
-1.3 2.1 4129.031999999999
-1.3 2.2
-1.3 2.2 4129.031999999999
-1.3 2.3
-1.3 2.3 4129.031999999999
-1.3 2.4
-1.3 2.4 4251.57
-1.3 2.5
-1.3 2.5 4149.526
-1.3 2.6
-1.3 2.6 4149.526
-1.3 2.7
-1.3 2.7 4368.709999999999
-1.3 2.8
-1.3 2.8 4369.278
-1.3 2.9
-1.3 2.9 4369.278
-1.2 -3.0
-1.2 -3.0 3917.3249999999994
-1.2 -2.9
-1.2 -2.9 3963.3969999999995
-1.2 -2.8
-1.2 -2.8 3963.3969999999995
-1.2 -2.7
-1.2 -2.7 3963.3969999999995
-1.2 -2.6
-1.2 -2.6 3963.3969999999995
-1.2 -2.5
-1.2 -2.5 3963.3969999999995
-1.2 -2.4
-1.2 -2.4 3999.417
-1.2 -2.3
-1.2 -2.3 3999.417
-1.2 -2.2
-1.2 -2.2 3984.2199999999993
-1.2 -2.1
-1.2 -2.1 3948.0779999999995
-1.2 -2.0
-1.2 -2.0 3936.825999999999
-1.2 -1.9
-1.2 -1.9 4003.84
-1.2 -1.8
-1.2 -1.8 4021.1179999999995
-1.2 -1.7
-1.2 -1.7 4021.1179999999995
-1.2 -1.6
-1.2 -1.6 3996.198
-1.2 -1.5
-1.2 -1.5 4037.9539999999997
-1.2 -1.4
-1.2 -1.4 4108.172
-1.2 -1.3
-1.2 -1.3 4088.8419999999996
-1.2 -1.2
-1.2 -1.2 4080.1619999999994
-1.2 -1.1
-1.2 -1.1 4095.7619999999997
-1.2 -1.0
-1.2 -1.0 4095.7619999999997
-1.2 -0.9
-1.2 -0.9 4070.4139999999998
-1.2 -0.8
-1.2 -0.8 4087.0359999999996
-1.2 -0.7
-1.2 -0.7 4080.236
-1.2 -0.6
-1.2 -0.6 4112.498
-1.2 -0.5
-1.2 -0.5 4105.107999999999
-1.2 -0.4
-1.2 -0.4 4142.079999999999
-1.2 -0.3
-1.2 -0.3 4110.022999999999
-1.2 -0.2
-1.2 -0.2 4145.380999999999
-1.2 -0.1
-1.2 -0.1 4155.0109999999995
-1.2 0.0
-1.2 0.0 4180.473999999999
-1.2 0.1
-1.2 0.1 4161.808999999999
-1.2 0.2
-1.2 0.2 4063.6249999999995
-1.2 0.3
-1.2 0.3 4063.6249999999995
-1.2 0.4
-1.2 0.4 4030.8349999999996
-1.2 0.5
-1.2 0.5 4086.839999999999
-1.2 0.6
-1.2 0.6 4080.5399999999995
-1.2 0.7
-1.2 0.7 4055.9239999999995
-1.2 0.8
-1.2 0.8 4173.063999999999
-1.2 0.9
-1.2 0.9 4193.51
-1.2 1.0
-1.2 1.0 4108.547999999999
-1.2 1.1
-1.2 1.1 4155.898
-1.2 1.2
-1.2 1.2 4182.335999999999
-1.2 1.3
-1.2 1.3 4177.996
-1.2 1.4
-1.2 1.4 4207.465999999999
-1.2 1.5
-1.2 1.5 4207.465999999999
-1.2 1.6
-1.2 1.6 4083.718
-1.2 1.7
-1.2 1.7 4083.3559999999998
-1.2 1.8
-1.2 1.8 4048.428
-1.2 1.9
-1.2 1.9 4082.3419999999996
-1.2 2.0
-1.2 2.0 4090.0979999999995
-1.2 2.1
-1.2 2.1 4090.0979999999995
-1.2 2.2
-1.2 2.2 4129.031999999999
-1.2 2.3
-1.2 2.3 4129.031999999999
-1.2 2.4
-1.2 2.4 4179.191999999999
-1.2 2.5
-1.2 2.5 4252.348
-1.2 2.6
-1.2 2.6 4252.348
-1.2 2.7
-1.2 2.7 4376.818
-1.2 2.8
-1.2 2.8 4376.818
-1.2 2.9
-1.2 2.9 4376.818
-1.1 -3.0
-1.1 -3.0 3917.3249999999994
-1.1 -2.9
-1.1 -2.9 3963.3969999999995
-1.1 -2.8
-1.1 -2.8 3963.3969999999995
-1.1 -2.7
-1.1 -2.7 3963.3969999999995
-1.1 -2.6
-1.1 -2.6 3963.3969999999995
-1.1 -2.5
-1.1 -2.5 3963.3969999999995
-1.1 -2.4
-1.1 -2.4 3963.3969999999995
-1.1 -2.3
-1.1 -2.3 3999.417
-1.1 -2.2
-1.1 -2.2 3960.353999999999
-1.1 -2.1
-1.1 -2.1 3936.825999999999
-1.1 -2.0
-1.1 -2.0 3936.825999999999
-1.1 -1.9
-1.1 -1.9 4003.84
-1.1 -1.8
-1.1 -1.8 4021.1179999999995
-1.1 -1.7
-1.1 -1.7 4021.1179999999995
-1.1 -1.6
-1.1 -1.6 4021.1179999999995
-1.1 -1.5
-1.1 -1.5 4037.9539999999997
-1.1 -1.4
-1.1 -1.4 4108.172
-1.1 -1.3
-1.1 -1.3 4108.172
-1.1 -1.2
-1.1 -1.2 4048.2119999999995
-1.1 -1.1
-1.1 -1.1 4048.2119999999995
-1.1 -1.0
-1.1 -1.0 4069.2779999999993
-1.1 -0.9
-1.1 -0.9 4172.705999999999
-1.1 -0.8
-1.1 -0.8 4087.0359999999996
-1.1 -0.7
-1.1 -0.7 4080.236
-1.1 -0.6
-1.1 -0.6 4093.267999999999
-1.1 -0.5
-1.1 -0.5 4147.3679999999995
-1.1 -0.4
-1.1 -0.4 4115.310999999999
-1.1 -0.3
-1.1 -0.3 4110.022999999999
-1.1 -0.2
-1.1 -0.2 4146.370999999999
-1.1 -0.1
-1.1 -0.1 4146.370999999999
-1.1 0.0
-1.1 0.0 4155.017
-1.1 0.1
-1.1 0.1 4225.977
-1.1 0.2
-1.1 0.2 4052.100999999999
-1.1 0.3
-1.1 0.3 4052.100999999999
-1.1 0.4
-1.1 0.4 4113.524999999999
-1.1 0.5
-1.1 0.5 4076.636
-1.1 0.6
-1.1 0.6 4118.3
-1.1 0.7
-1.1 0.7 4127.576
-1.1 0.8
-1.1 0.8 4166.802
-1.1 0.9
-1.1 0.9 4231.08
-1.1 1.0
-1.1 1.0 4190.5
-1.1 1.1
-1.1 1.1 4231.316
-1.1 1.2
-1.1 1.2 4177.996
-1.1 1.3
-1.1 1.3 4163.772
-1.1 1.4
-1.1 1.4 4207.465999999999
-1.1 1.5
-1.1 1.5 4228.126
-1.1 1.6
-1.1 1.6 4037.4559999999997
-1.1 1.7
-1.1 1.7 4048.428
-1.1 1.8
-1.1 1.8 4048.428
-1.1 1.9
-1.1 1.9 4058.5139999999997
-1.1 2.0
-1.1 2.0 4152.347999999999
-1.1 2.1
-1.1 2.1 4152.347999999999
-1.1 2.2
-1.1 2.2 4105.1179999999995
-1.1 2.3
-1.1 2.3 4105.1179999999995
-1.1 2.4
-1.1 2.4 4218.927999999999
-1.1 2.5
-1.1 2.5 4252.348
-1.1 2.6
-1.1 2.6 4252.348
-1.1 2.7
-1.1 2.7 4252.348
-1.1 2.8
-1.1 2.8 4376.818
-1.1 2.9
-1.1 2.9 4277.424
-1.0 -3.0
-1.0 -3.0 3917.3249999999994
-1.0 -2.9
-1.0 -2.9 3963.3969999999995
-1.0 -2.8
-1.0 -2.8 3963.3969999999995
-1.0 -2.7
-1.0 -2.7 3963.3969999999995
-1.0 -2.6
-1.0 -2.6 3963.3969999999995
-1.0 -2.5
-1.0 -2.5 3963.3969999999995
-1.0 -2.4
-1.0 -2.4 3963.3969999999995
-1.0 -2.3
-1.0 -2.3 3967.408999999999
-1.0 -2.2
-1.0 -2.2 3967.408999999999
-1.0 -2.1
-1.0 -2.1 3960.353999999999
-1.0 -2.0
-1.0 -2.0 4016.116
-1.0 -1.9
-1.0 -1.9 4016.116
-1.0 -1.8
-1.0 -1.8 4016.116
-1.0 -1.7
-1.0 -1.7 4008.7919999999995
-1.0 -1.6
-1.0 -1.6 4050.997999999999
-1.0 -1.5
-1.0 -1.5 4037.9539999999997
-1.0 -1.4
-1.0 -1.4 4026.866
-1.0 -1.3
-1.0 -1.3 4050.5719999999997
-1.0 -1.2
-1.0 -1.2 4071.6379999999995
-1.0 -1.1
-1.0 -1.1 4069.2779999999993
-1.0 -1.0
-1.0 -1.0 4132.445999999999
-1.0 -0.9
-1.0 -0.9 4132.445999999999
-1.0 -0.8
-1.0 -0.8 4076.586
-1.0 -0.7
-1.0 -0.7 4076.586
-1.0 -0.6
-1.0 -0.6 4121.467999999999
-1.0 -0.5
-1.0 -0.5 4094.5609999999992
-1.0 -0.4
-1.0 -0.4 4094.5609999999992
-1.0 -0.3
-1.0 -0.3 4115.310999999999
-1.0 -0.2
-1.0 -0.2 4146.370999999999
-1.0 -0.1
-1.0 -0.1 4165.307
-1.0 0.0
-1.0 0.0 4155.017
-1.0 0.1
-1.0 0.1 4097.297
-1.0 0.2
-1.0 0.2 4097.297
-1.0 0.3
-1.0 0.3 4062.6209999999996
-1.0 0.4
-1.0 0.4 3996.4829999999993
-1.0 0.5
-1.0 0.5 4076.636
-1.0 0.6
-1.0 0.6 4118.3
-1.0 0.7
-1.0 0.7 4118.3
-1.0 0.8
-1.0 0.8 4196.41
-1.0 0.9
-1.0 0.9 4196.41
-1.0 1.0
-1.0 1.0 4292.292
-1.0 1.1
-1.0 1.1 4281.3679999999995
-1.0 1.2
-1.0 1.2 4155.246
-1.0 1.3
-1.0 1.3 4113.891999999999
-1.0 1.4
-1.0 1.4 4219.272
-1.0 1.5
-1.0 1.5 4086.9919999999997
-1.0 1.6
-1.0 1.6 4044.9959999999996
-1.0 1.7
-1.0 1.7 4055.968
-1.0 1.8
-1.0 1.8 4055.968
-1.0 1.9
-1.0 1.9 4055.968
-1.0 2.0
-1.0 2.0 4076.644
-1.0 2.1
-1.0 2.1 4117.603999999999
-1.0 2.2
-1.0 2.2 4105.1179999999995
-1.0 2.3
-1.0 2.3 4115.089999999999
-1.0 2.4
-1.0 2.4 4165.86
-1.0 2.5
-1.0 2.5 4165.86
-1.0 2.6
-1.0 2.6 4243.166
-1.0 2.7
-1.0 2.7 4239.686
-1.0 2.8
-1.0 2.8 4282.16
-1.0 2.9
-1.0 2.9 4282.16
-0.9 -3.0
-0.9 -3.0 3917.3249999999994
-0.9 -2.9
-0.9 -2.9 3976.278999999999
-0.9 -2.8
-0.9 -2.8 3963.3969999999995
-0.9 -2.7
-0.9 -2.7 3963.3969999999995
-0.9 -2.6
-0.9 -2.6 3963.3969999999995
-0.9 -2.5
-0.9 -2.5 3963.3969999999995
-0.9 -2.4
-0.9 -2.4 3850.768999999999
-0.9 -2.3
-0.9 -2.3 3850.768999999999
-0.9 -2.2
-0.9 -2.2 3869.324999999999
-0.9 -2.1
-0.9 -2.1 3894.187999999999
-0.9 -2.0
-0.9 -2.0 4048.0339999999997
-0.9 -1.9
-0.9 -1.9 4001.384
-0.9 -1.8
-0.9 -1.8 4027.0819999999994
-0.9 -1.7
-0.9 -1.7 4027.0819999999994
-0.9 -1.6
-0.9 -1.6 4008.7919999999995
-0.9 -1.5
-0.9 -1.5 4050.997999999999
-0.9 -1.4
-0.9 -1.4 4027.557999999999
-0.9 -1.3
-0.9 -1.3 4051.2639999999997
-0.9 -1.2
-0.9 -1.2 4026.3439999999996
-0.9 -1.1
-0.9 -1.1 4054.9419999999996
-0.9 -1.0
-0.9 -1.0 4069.8239999999996
-0.9 -0.9
-0.9 -0.9 4132.445999999999
-0.9 -0.8
-0.9 -0.8 4030.086
-0.9 -0.7
-0.9 -0.7 4070.3459999999995
-0.9 -0.6
-0.9 -0.6 4035.268999999999
-0.9 -0.5
-0.9 -0.5 4078.9609999999993
-0.9 -0.4
-0.9 -0.4 4094.5609999999992
-0.9 -0.3
-0.9 -0.3 4094.5609999999992
-0.9 -0.2
-0.9 -0.2 4154.706999999999
-0.9 -0.1
-0.9 -0.1 4154.706999999999
-0.9 0.0
-0.9 0.0 4155.017
-0.9 0.1
-0.9 0.1 4079.4769999999994
-0.9 0.2
-0.9 0.2 4105.844999999999
-0.9 0.3
-0.9 0.3 4042.861
-0.9 0.4
-0.9 0.4 4094.5799999999995
-0.9 0.5
-0.9 0.5 4020.4619999999995
-0.9 0.6
-0.9 0.6 4081.2899999999995
-0.9 0.7
-0.9 0.7 4081.2899999999995
-0.9 0.8
-0.9 0.8 4164.61
-0.9 0.9
-0.9 0.9 4159.142
-0.9 1.0
-0.9 1.0 4060.0739999999996
-0.9 1.1
-0.9 1.1 4037.6279999999997
-0.9 1.2
-0.9 1.2 4068.828
-0.9 1.3
-0.9 1.3 4110.468
-0.9 1.4
-0.9 1.4 4070.728
-0.9 1.5
-0.9 1.5 4086.9919999999997
-0.9 1.6
-0.9 1.6 4040.4939999999997
-0.9 1.7
-0.9 1.7 4055.968
-0.9 1.8
-0.9 1.8 4064.8699999999994
-0.9 1.9
-0.9 1.9 4064.8699999999994
-0.9 2.0
-0.9 2.0 4070.845999999999
-0.9 2.1
-0.9 2.1 4070.758
-0.9 2.2
-0.9 2.2 4080.8439999999996
-0.9 2.3
-0.9 2.3 4115.089999999999
-0.9 2.4
-0.9 2.4 4115.089999999999
-0.9 2.5
-0.9 2.5 4209.289999999999
-0.9 2.6
-0.9 2.6 4242.018
-0.9 2.7
-0.9 2.7 4251.624
-0.9 2.8
-0.9 2.8 4249.572
-0.9 2.9
-0.9 2.9 4301.47
-0.8 -3.0
-0.8 -3.0 3976.278999999999
-0.8 -2.9
-0.8 -2.9 3976.278999999999
-0.8 -2.8
-0.8 -2.8 3976.278999999999
-0.8 -2.7
-0.8 -2.7 3976.278999999999
-0.8 -2.6
-0.8 -2.6 3882.054999999999
-0.8 -2.5
-0.8 -2.5 3850.768999999999
-0.8 -2.4
-0.8 -2.4 3850.768999999999
-0.8 -2.3
-0.8 -2.3 3850.768999999999
-0.8 -2.2
-0.8 -2.2 3894.187999999999
-0.8 -2.1
-0.8 -2.1 3823.3299999999995
-0.8 -2.0
-0.8 -2.0 3906.294
-0.8 -1.9
-0.8 -1.9 3909.9439999999995
-0.8 -1.8
-0.8 -1.8 3851.0699999999993
-0.8 -1.7
-0.8 -1.7 3912.6499999999996
-0.8 -1.6
-0.8 -1.6 3990.578
-0.8 -1.5
-0.8 -1.5 3972.288
-0.8 -1.4
-0.8 -1.4 3972.288
-0.8 -1.3
-0.8 -1.3 3969.957999999999
-0.8 -1.2
-0.8 -1.2 3997.0259999999994
-0.8 -1.1
-0.8 -1.1 3914.9159999999997
-0.8 -1.0
-0.8 -1.0 3953.506
-0.8 -0.9
-0.8 -0.9 3972.538
-0.8 -0.8
-0.8 -0.8 4035.868
-0.8 -0.7
-0.8 -0.7 4036.3019999999997
-0.8 -0.6
-0.8 -0.6 4035.268999999999
-0.8 -0.5
-0.8 -0.5 4078.9609999999993
-0.8 -0.4
-0.8 -0.4 4078.9609999999993
-0.8 -0.3
-0.8 -0.3 4078.9609999999993
-0.8 -0.2
-0.8 -0.2 4110.589
-0.8 -0.1
-0.8 -0.1 4082.013
-0.8 0.0
-0.8 0.0 4128.557
-0.8 0.1
-0.8 0.1 4043.6929999999993
-0.8 0.2
-0.8 0.2 4105.844999999999
-0.8 0.3
-0.8 0.3 4040.1009999999997
-0.8 0.4
-0.8 0.4 4154.611999999999
-0.8 0.5
-0.8 0.5 4002.0679999999993
-0.8 0.6
-0.8 0.6 3968.0
-0.8 0.7
-0.8 0.7 4081.2899999999995
-0.8 0.8
-0.8 0.8 4101.244
-0.8 0.9
-0.8 0.9 4075.1499999999996
-0.8 1.0
-0.8 1.0 4052.308
-0.8 1.1
-0.8 1.1 4061.6040000000003
-0.8 1.2
-0.8 1.2 4026.9999999999995
-0.8 1.3
-0.8 1.3 4089.6659999999993
-0.8 1.4
-0.8 1.4 4028.033999999999
-0.8 1.5
-0.8 1.5 4069.977999999999
-0.8 1.6
-0.8 1.6 4080.2339999999995
-0.8 1.7
-0.8 1.7 4064.8699999999994
-0.8 1.8
-0.8 1.8 4064.8699999999994
-0.8 1.9
-0.8 1.9 4062.638
-0.8 2.0
-0.8 2.0 4053.8959999999997
-0.8 2.1
-0.8 2.1 4082.1939999999995
-0.8 2.2
-0.8 2.2 4068.6619999999994
-0.8 2.3
-0.8 2.3 4068.6619999999994
-0.8 2.4
-0.8 2.4 4177.496
-0.8 2.5
-0.8 2.5 4217.9259999999995
-0.8 2.6
-0.8 2.6 4227.532
-0.8 2.7
-0.8 2.7 4227.532
-0.8 2.8
-0.8 2.8 4227.532
-0.8 2.9
-0.8 2.9 4249.572
-0.7 -3.0
-0.7 -3.0 3917.326999999999
-0.7 -2.9
-0.7 -2.9 3976.278999999999
-0.7 -2.8
-0.7 -2.8 3976.278999999999
-0.7 -2.7
-0.7 -2.7 3906.978999999999
-0.7 -2.6
-0.7 -2.6 3899.7329999999993
-0.7 -2.5
-0.7 -2.5 3899.7329999999993
-0.7 -2.4
-0.7 -2.4 3847.8829999999994
-0.7 -2.3
-0.7 -2.3 3798.918999999999
-0.7 -2.2
-0.7 -2.2 3791.863999999999
-0.7 -2.1
-0.7 -2.1 3875.79
-0.7 -2.0
-0.7 -2.0 3906.294
-0.7 -1.9
-0.7 -1.9 3906.8059999999996
-0.7 -1.8
-0.7 -1.8 3910.4559999999997
-0.7 -1.7
-0.7 -1.7 3910.4559999999997
-0.7 -1.6
-0.7 -1.6 3929.42
-0.7 -1.5
-0.7 -1.5 3929.42
-0.7 -1.4
-0.7 -1.4 3966.048
-0.7 -1.3
-0.7 -1.3 3993.417999999999
-0.7 -1.2
-0.7 -1.2 3997.0259999999994
-0.7 -1.1
-0.7 -1.1 3943.4139999999998
-0.7 -1.0
-0.7 -1.0 3953.506
-0.7 -0.9
-0.7 -0.9 3953.506
-0.7 -0.8
-0.7 -0.8 4013.736
-0.7 -0.7
-0.7 -0.7 3985.493
-0.7 -0.6
-0.7 -0.6 3954.5569999999993
-0.7 -0.5
-0.7 -0.5 4085.1769999999997
-0.7 -0.4
-0.7 -0.4 4078.9609999999993
-0.7 -0.3
-0.7 -0.3 3950.780999999999
-0.7 -0.2
-0.7 -0.2 3961.1469999999995
-0.7 -0.1
-0.7 -0.1 3985.7509999999997
-0.7 0.0
-0.7 0.0 3963.4109999999996
-0.7 0.1
-0.7 0.1 3980.7709999999997
-0.7 0.2
-0.7 0.2 4033.3059999999996
-0.7 0.3
-0.7 0.3 4090.0539999999996
-0.7 0.4
-0.7 0.4 4110.346
-0.7 0.5
-0.7 0.5 4048.7719999999995
-0.7 0.6
-0.7 0.6 4048.7719999999995
-0.7 0.7
-0.7 0.7 4069.1739999999995
-0.7 0.8
-0.7 0.8 4141.592
-0.7 0.9
-0.7 0.9 4127.643999999999
-0.7 1.0
-0.7 1.0 4151.374
-0.7 1.1
-0.7 1.1 4088.9719999999998
-0.7 1.2
-0.7 1.2 4095.207999999999
-0.7 1.3
-0.7 1.3 4096.013999999999
-0.7 1.4
-0.7 1.4 4028.033999999999
-0.7 1.5
-0.7 1.5 3951.6279999999997
-0.7 1.6
-0.7 1.6 3962.52
-0.7 1.7
-0.7 1.7 4078.328
-0.7 1.8
-0.7 1.8 4058.0019999999995
-0.7 1.9
-0.7 1.9 4058.0019999999995
-0.7 2.0
-0.7 2.0 4096.4439999999995
-0.7 2.1
-0.7 2.1 4142.124
-0.7 2.2
-0.7 2.2 4112.954
-0.7 2.3
-0.7 2.3 4151.887999999999
-0.7 2.4
-0.7 2.4 4112.954
-0.7 2.5
-0.7 2.5 4161.962
-0.7 2.6
-0.7 2.6 4229.548
-0.7 2.7
-0.7 2.7 4229.548
-0.7 2.8
-0.7 2.8 4229.548
-0.7 2.9
-0.7 2.9 4198.108
-0.6 -3.0
-0.6 -3.0 3926.106999999999
-0.6 -2.9
-0.6 -2.9 3885.986999999999
-0.6 -2.8
-0.6 -2.8 3885.4849999999988
-0.6 -2.7
-0.6 -2.7 3893.218999999999
-0.6 -2.6
-0.6 -2.6 3855.128999999999
-0.6 -2.5
-0.6 -2.5 3847.8829999999994
-0.6 -2.4
-0.6 -2.4 3847.8829999999994
-0.6 -2.3
-0.6 -2.3 3840.8279999999995
-0.6 -2.2
-0.6 -2.2 3840.8279999999995
-0.6 -2.1
-0.6 -2.1 3864.9839999999995
-0.6 -2.0
-0.6 -2.0 3906.8059999999996
-0.6 -1.9
-0.6 -1.9 3906.8059999999996
-0.6 -1.8
-0.6 -1.8 3910.4559999999997
-0.6 -1.7
-0.6 -1.7 3910.4559999999997
-0.6 -1.6
-0.6 -1.6 3910.4559999999997
-0.6 -1.5
-0.6 -1.5 3929.42
-0.6 -1.4
-0.6 -1.4 3926.1219999999994
-0.6 -1.3
-0.6 -1.3 3962.6839999999997
-0.6 -1.2
-0.6 -1.2 4020.7139999999995
-0.6 -1.1
-0.6 -1.1 3939.3520000000003
-0.6 -1.0
-0.6 -1.0 3915.8259999999996
-0.6 -0.9
-0.6 -0.9 3932.938
-0.6 -0.8
-0.6 -0.8 3919.2589999999996
-0.6 -0.7
-0.6 -0.7 3944.2189999999996
-0.6 -0.6
-0.6 -0.6 3913.283
-0.6 -0.5
-0.6 -0.5 3901.5149999999994
-0.6 -0.4
-0.6 -0.4 3912.3449999999993
-0.6 -0.3
-0.6 -0.3 4004.4629999999997
-0.6 -0.2
-0.6 -0.2 3985.7509999999997
-0.6 -0.1
-0.6 -0.1 4018.7369999999996
-0.6 0.0
-0.6 0.0 3975.6349999999993
-0.6 0.1
-0.6 0.1 3923.004999999999
-0.6 0.2
-0.6 0.2 4024.4339999999997
-0.6 0.3
-0.6 0.3 4072.2019999999993
-0.6 0.4
-0.6 0.4 4004.7499999999995
-0.6 0.5
-0.6 0.5 3970.0619999999994
-0.6 0.6
-0.6 0.6 3972.72
-0.6 0.7
-0.6 0.7 3999.1019999999994
-0.6 0.8
-0.6 0.8 4017.8320000000003
-0.6 0.9
-0.6 0.9 4139.3240000000005
-0.6 1.0
-0.6 1.0 4002.0399999999995
-0.6 1.1
-0.6 1.1 3986.842
-0.6 1.2
-0.6 1.2 4065.2379999999994
-0.6 1.3
-0.6 1.3 4070.1479999999992
-0.6 1.4
-0.6 1.4 3982.3839999999996
-0.6 1.5
-0.6 1.5 3951.6279999999997
-0.6 1.6
-0.6 1.6 4007.7859999999996
-0.6 1.7
-0.6 1.7 4007.7859999999996
-0.6 1.8
-0.6 1.8 4084.47
-0.6 1.9
-0.6 1.9 4115.965999999999
-0.6 2.0
-0.6 2.0 4112.954
-0.6 2.1
-0.6 2.1 4112.954
-0.6 2.2
-0.6 2.2 4151.887999999999
-0.6 2.3
-0.6 2.3 4123.982
-0.6 2.4
-0.6 2.4 4108.448
-0.6 2.5
-0.6 2.5 4114.688
-0.6 2.6
-0.6 2.6 4142.312
-0.6 2.7
-0.6 2.7 4181.044
-0.6 2.8
-0.6 2.8 4181.044
-0.6 2.9
-0.6 2.9 4181.044
-0.5 -3.0
-0.5 -3.0 3881.0209999999993
-0.5 -2.9
-0.5 -2.9 3812.548999999999
-0.5 -2.8
-0.5 -2.8 3776.378999999999
-0.5 -2.7
-0.5 -2.7 3776.378999999999
-0.5 -2.6
-0.5 -2.6 3841.3689999999992
-0.5 -2.5
-0.5 -2.5 3841.3689999999992
-0.5 -2.4
-0.5 -2.4 3841.3689999999992
-0.5 -2.3
-0.5 -2.3 3757.9799999999996
-0.5 -2.2
-0.5 -2.2 3818.5699999999993
-0.5 -2.1
-0.5 -2.1 3937.483999999999
-0.5 -2.0
-0.5 -2.0 3906.8059999999996
-0.5 -1.9
-0.5 -1.9 3886.238
-0.5 -1.8
-0.5 -1.8 3886.238
-0.5 -1.7
-0.5 -1.7 3889.888
-0.5 -1.6
-0.5 -1.6 3889.888
-0.5 -1.5
-0.5 -1.5 3840.446
-0.5 -1.4
-0.5 -1.4 3901.5139999999997
-0.5 -1.3
-0.5 -1.3 3942.116
-0.5 -1.2
-0.5 -1.2 3920.5979999999995
-0.5 -1.1
-0.5 -1.1 3954.8259999999996
-0.5 -1.0
-0.5 -1.0 3975.5319999999997
-0.5 -0.9
-0.5 -0.9 3940.8319999999994
-0.5 -0.8
-0.5 -0.8 3900.0729999999994
-0.5 -0.7
-0.5 -0.7 3947.7369999999996
-0.5 -0.6
-0.5 -0.6 3947.9249999999993
-0.5 -0.5
-0.5 -0.5 3926.3749999999995
-0.5 -0.4
-0.5 -0.4 3954.0029999999992
-0.5 -0.3
-0.5 -0.3 3983.2629999999995
-0.5 -0.2
-0.5 -0.2 4092.6769999999997
-0.5 -0.1
-0.5 -0.1 4053.905
-0.5 0.0
-0.5 0.0 3983.019
-0.5 0.1
-0.5 0.1 4122.451999999999
-0.5 0.2
-0.5 0.2 4072.7839999999997
-0.5 0.3
-0.5 0.3 4072.7839999999997
-0.5 0.4
-0.5 0.4 4042.7839999999997
-0.5 0.5
-0.5 0.5 3898.0699999999993
-0.5 0.6
-0.5 0.6 3954.7519999999995
-0.5 0.7
-0.5 0.7 3963.477999999999
-0.5 0.8
-0.5 0.8 4024.8379999999993
-0.5 0.9
-0.5 0.9 4026.584
-0.5 1.0
-0.5 1.0 4026.584
-0.5 1.1
-0.5 1.1 3934.2940000000003
-0.5 1.2
-0.5 1.2 4067.428
-0.5 1.3
-0.5 1.3 4011.0159999999996
-0.5 1.4
-0.5 1.4 3972.0819999999994
-0.5 1.5
-0.5 1.5 3916.3519999999994
-0.5 1.6
-0.5 1.6 3916.3519999999994
-0.5 1.7
-0.5 1.7 3916.0799999999995
-0.5 1.8
-0.5 1.8 4005.9679999999994
-0.5 1.9
-0.5 1.9 4056.7819999999997
-0.5 2.0
-0.5 2.0 4112.954
-0.5 2.1
-0.5 2.1 4145.545999999999
-0.5 2.2
-0.5 2.2 4105.081999999999
-0.5 2.3
-0.5 2.3 4089.5479999999993
-0.5 2.4
-0.5 2.4 4102.456
-0.5 2.5
-0.5 2.5 4098.976
-0.5 2.6
-0.5 2.6 4124.424
-0.5 2.7
-0.5 2.7 4093.808
-0.5 2.8
-0.5 2.8 4181.044
-0.5 2.9
-0.5 2.9 4181.044
-0.4 -3.0
-0.4 -3.0 3785.938999999999
-0.4 -2.9
-0.4 -2.9 3776.378999999999
-0.4 -2.8
-0.4 -2.8 3776.378999999999
-0.4 -2.7
-0.4 -2.7 3796.102999999999
-0.4 -2.6
-0.4 -2.6 3796.102999999999
-0.4 -2.5
-0.4 -2.5 3796.102999999999
-0.4 -2.4
-0.4 -2.4 3876.615999999999
-0.4 -2.3
-0.4 -2.3 3847.9079999999994
-0.4 -2.2
-0.4 -2.2 3915.803999999999
-0.4 -2.1
-0.4 -2.1 3946.307999999999
-0.4 -2.0
-0.4 -2.0 3905.537999999999
-0.4 -1.9
-0.4 -1.9 3917.5919999999996
-0.4 -1.8
-0.4 -1.8 3917.5919999999996
-0.4 -1.7
-0.4 -1.7 3932.2039999999997
-0.4 -1.6
-0.4 -1.6 3941.144
-0.4 -1.5
-0.4 -1.5 3944.1919999999996
-0.4 -1.4
-0.4 -1.4 3968.1979999999994
-0.4 -1.3
-0.4 -1.3 4026.1259999999997
-0.4 -1.2
-0.4 -1.2 4017.287999999999
-0.4 -1.1
-0.4 -1.1 4017.287999999999
-0.4 -1.0
-0.4 -1.0 3963.4999999999995
-0.4 -0.9
-0.4 -0.9 3911.2189999999996
-0.4 -0.8
-0.4 -0.8 3904.4769999999994
-0.4 -0.7
-0.4 -0.7 3912.5389999999998
-0.4 -0.6
-0.4 -0.6 3892.014999999999
-0.4 -0.5
-0.4 -0.5 3885.214999999999
-0.4 -0.4
-0.4 -0.4 3920.4429999999993
-0.4 -0.3
-0.4 -0.3 3904.968999999999
-0.4 -0.2
-0.4 -0.2 4002.932999999999
-0.4 -0.1
-0.4 -0.1 4010.031
-0.4 0.0
-0.4 0.0 4028.689
-0.4 0.1
-0.4 0.1 4132.714
-0.4 0.2
-0.4 0.2 4141.37
-0.4 0.3
-0.4 0.3 4118.68
-0.4 0.4
-0.4 0.4 4088.3519999999994
-0.4 0.5
-0.4 0.5 4011.54
-0.4 0.6
-0.4 0.6 4072.6459999999997
-0.4 0.7
-0.4 0.7 3973.848
-0.4 0.8
-0.4 0.8 3960.906
-0.4 0.9
-0.4 0.9 3974.5819999999994
-0.4 1.0
-0.4 1.0 3913.604
-0.4 1.1
-0.4 1.1 3874.2759999999994
-0.4 1.2
-0.4 1.2 3874.2759999999994
-0.4 1.3
-0.4 1.3 3949.794
-0.4 1.4
-0.4 1.4 3942.3399999999992
-0.4 1.5
-0.4 1.5 3850.2199999999993
-0.4 1.6
-0.4 1.6 3827.8819999999996
-0.4 1.7
-0.4 1.7 3827.557999999999
-0.4 1.8
-0.4 1.8 3930.938
-0.4 1.9
-0.4 1.9 4124.722
-0.4 2.0
-0.4 2.0 3957.9679999999994
-0.4 2.1
-0.4 2.1 4085.288
-0.4 2.2
-0.4 2.2 4207.236
-0.4 2.3
-0.4 2.3 4207.236
-0.4 2.4
-0.4 2.4 4232.376
-0.4 2.5
-0.4 2.5 4232.376
-0.4 2.6
-0.4 2.6 4255.842000000001
-0.4 2.7
-0.4 2.7 4270.272
-0.4 2.8
-0.4 2.8 4270.272
-0.4 2.9
-0.4 2.9 4317.157999999999
-0.3 -3.0
-0.3 -3.0 3903.5199999999986
-0.3 -2.9
-0.3 -2.9 3903.5199999999986
-0.3 -2.8
-0.3 -2.8 3903.5199999999986
-0.3 -2.7
-0.3 -2.7 3904.279999999999
-0.3 -2.6
-0.3 -2.6 3894.719999999999
-0.3 -2.5
-0.3 -2.5 3894.719999999999
-0.3 -2.4
-0.3 -2.4 3868.635999999999
-0.3 -2.3
-0.3 -2.3 3930.373999999999
-0.3 -2.2
-0.3 -2.2 3933.7619999999997
-0.3 -2.1
-0.3 -2.1 3933.7619999999997
-0.3 -2.0
-0.3 -2.0 3844.079999999999
-0.3 -1.9
-0.3 -1.9 3844.079999999999
-0.3 -1.8
-0.3 -1.8 3844.079999999999
-0.3 -1.7
-0.3 -1.7 3941.4259999999986
-0.3 -1.6
-0.3 -1.6 3945.7759999999994
-0.3 -1.5
-0.3 -1.5 3929.2299999999987
-0.3 -1.4
-0.3 -1.4 3987.1099999999988
-0.3 -1.3
-0.3 -1.3 3987.1099999999988
-0.3 -1.2
-0.3 -1.2 3957.7179999999994
-0.3 -1.1
-0.3 -1.1 3962.1599999999994
-0.3 -1.0
-0.3 -1.0 3976.303
-0.3 -0.9
-0.3 -0.9 3970.183
-0.3 -0.8
-0.3 -0.8 3891.876999999999
-0.3 -0.7
-0.3 -0.7 3893.074999999999
-0.3 -0.6
-0.3 -0.6 3886.6189999999992
-0.3 -0.5
-0.3 -0.5 3893.6209999999996
-0.3 -0.4
-0.3 -0.4 3904.968999999999
-0.3 -0.3
-0.3 -0.3 3904.968999999999
-0.3 -0.2
-0.3 -0.2 3962.4149999999995
-0.3 -0.1
-0.3 -0.1 3980.0360000000005
-0.3 0.0
-0.3 0.0 4057.2460000000005
-0.3 0.1
-0.3 0.1 4135.662
-0.3 0.2
-0.3 0.2 4141.37
-0.3 0.3
-0.3 0.3 4073.6639999999998
-0.3 0.4
-0.3 0.4 4087.1279999999997
-0.3 0.5
-0.3 0.5 4063.926
-0.3 0.6
-0.3 0.6 3973.848
-0.3 0.7
-0.3 0.7 3949.366
-0.3 0.8
-0.3 0.8 4004.328
-0.3 0.9
-0.3 0.9 4004.328
-0.3 1.0
-0.3 1.0 4004.328
-0.3 1.1
-0.3 1.1 3854.555999999999
-0.3 1.2
-0.3 1.2 3862.3299999999995
-0.3 1.3
-0.3 1.3 3903.2559999999994
-0.3 1.4
-0.3 1.4 3898.7199999999993
-0.3 1.5
-0.3 1.5 3850.2199999999993
-0.3 1.6
-0.3 1.6 3812.0240000000003
-0.3 1.7
-0.3 1.7 3812.0240000000003
-0.3 1.8
-0.3 1.8 3812.0240000000003
-0.3 1.9
-0.3 1.9 4034.732
-0.3 2.0
-0.3 2.0 4107.662
-0.3 2.1
-0.3 2.1 4130.464
-0.3 2.2
-0.3 2.2 4130.464
-0.3 2.3
-0.3 2.3 4193.124
-0.3 2.4
-0.3 2.4 4162.928000000001
-0.3 2.5
-0.3 2.5 4243.748
-0.3 2.6
-0.3 2.6 4274.188
-0.3 2.7
-0.3 2.7 4255.842000000001
-0.3 2.8
-0.3 2.8 4255.842000000001
-0.3 2.9
-0.3 2.9 4254.906
-0.2 -3.0
-0.2 -3.0 3903.5199999999986
-0.2 -2.9
-0.2 -2.9 3903.7499999999986
-0.2 -2.8
-0.2 -2.8 3903.7499999999986
-0.2 -2.7
-0.2 -2.7 3904.509999999999
-0.2 -2.6
-0.2 -2.6 3904.509999999999
-0.2 -2.5
-0.2 -2.5 3920.803999999999
-0.2 -2.4
-0.2 -2.4 3917.153999999999
-0.2 -2.3
-0.2 -2.3 3917.153999999999
-0.2 -2.2
-0.2 -2.2 3916.5399999999995
-0.2 -2.1
-0.2 -2.1 3959.745999999999
-0.2 -2.0
-0.2 -2.0 3875.645999999999
-0.2 -1.9
-0.2 -1.9 3875.645999999999
-0.2 -1.8
-0.2 -1.8 3875.645999999999
-0.2 -1.7
-0.2 -1.7 3922.2979999999993
-0.2 -1.6
-0.2 -1.6 3934.7359999999985
-0.2 -1.5
-0.2 -1.5 3945.7759999999994
-0.2 -1.4
-0.2 -1.4 3943.309999999999
-0.2 -1.3
-0.2 -1.3 3944.911999999999
-0.2 -1.2
-0.2 -1.2 3935.2199999999993
-0.2 -1.1
-0.2 -1.1 3935.2199999999993
-0.2 -1.0
-0.2 -1.0 3980.0119999999997
-0.2 -0.9
-0.2 -0.9 4000.330999999999
-0.2 -0.8
-0.2 -0.8 4000.330999999999
-0.2 -0.7
-0.2 -0.7 3899.8789999999995
-0.2 -0.6
-0.2 -0.6 3840.553
-0.2 -0.5
-0.2 -0.5 3889.7989999999995
-0.2 -0.4
-0.2 -0.4 3886.821
-0.2 -0.3
-0.2 -0.3 3956.406
-0.2 -0.2
-0.2 -0.2 4003.7499999999995
-0.2 -0.1
-0.2 -0.1 3983.0960000000005
-0.2 0.0
-0.2 0.0 3949.752
-0.2 0.1
-0.2 0.1 4060.8360000000002
-0.2 0.2
-0.2 0.2 4028.35
-0.2 0.3
-0.2 0.3 4080.89
-0.2 0.4
-0.2 0.4 4084.908
-0.2 0.5
-0.2 0.5 3993.93
-0.2 0.6
-0.2 0.6 3984.1479999999997
-0.2 0.7
-0.2 0.7 4030.768
-0.2 0.8
-0.2 0.8 3975.166
-0.2 0.9
-0.2 0.9 3975.166
-0.2 1.0
-0.2 1.0 3975.166
-0.2 1.1
-0.2 1.1 3854.555999999999
-0.2 1.2
-0.2 1.2 3833.7779999999993
-0.2 1.3
-0.2 1.3 3917.4899999999993
-0.2 1.4
-0.2 1.4 3917.4899999999993
-0.2 1.5
-0.2 1.5 3917.4899999999993
-0.2 1.6
-0.2 1.6 3898.7199999999993
-0.2 1.7
-0.2 1.7 3812.0240000000003
-0.2 1.8
-0.2 1.8 3903.462
-0.2 1.9
-0.2 1.9 4028.876
-0.2 2.0
-0.2 2.0 4087.5500000000006
-0.2 2.1
-0.2 2.1 4137.8640000000005
-0.2 2.2
-0.2 2.2 4095.4280000000003
-0.2 2.3
-0.2 2.3 4091.9480000000003
-0.2 2.4
-0.2 2.4 4171.79
-0.2 2.5
-0.2 2.5 4111.472
-0.2 2.6
-0.2 2.6 4097.912
-0.2 2.7
-0.2 2.7 4170.6720000000005
-0.2 2.8
-0.2 2.8 4318.218
-0.2 2.9
-0.2 2.9 4217.1
-0.1 -3.0
-0.1 -3.0 3980.8979999999992
-0.1 -2.9
-0.1 -2.9 3980.8979999999992
-0.1 -2.8
-0.1 -2.8 3980.8979999999992
-0.1 -2.7
-0.1 -2.7 3940.5479999999993
-0.1 -2.6
-0.1 -2.6 3940.5479999999993
-0.1 -2.5
-0.1 -2.5 3940.5479999999993
-0.1 -2.4
-0.1 -2.4 3936.8979999999992
-0.1 -2.3
-0.1 -2.3 3936.8979999999992
-0.1 -2.2
-0.1 -2.2 3936.8979999999992
-0.1 -2.1
-0.1 -2.1 3896.7959999999985
-0.1 -2.0
-0.1 -2.0 3896.7959999999985
-0.1 -1.9
-0.1 -1.9 3887.2359999999985
-0.1 -1.8
-0.1 -1.8 3887.2359999999985
-0.1 -1.7
-0.1 -1.7 3886.287999999999
-0.1 -1.6
-0.1 -1.6 3961.5279999999993
-0.1 -1.5
-0.1 -1.5 3977.4539999999997
-0.1 -1.4
-0.1 -1.4 3931.233999999999
-0.1 -1.3
-0.1 -1.3 3886.765999999999
-0.1 -1.2
-0.1 -1.2 3886.765999999999
-0.1 -1.1
-0.1 -1.1 3886.765999999999
-0.1 -1.0
-0.1 -1.0 3931.557999999999
-0.1 -0.9
-0.1 -0.9 3947.548999999999
-0.1 -0.8
-0.1 -0.8 3927.2369999999996
-0.1 -0.7
-0.1 -0.7 3909.685
-0.1 -0.6
-0.1 -0.6 3909.685
-0.1 -0.5
-0.1 -0.5 3903.229
-0.1 -0.4
-0.1 -0.4 3899.798
-0.1 -0.3
-0.1 -0.3 3937.31
-0.1 -0.2
-0.1 -0.2 3970.006
-0.1 -0.1
-0.1 -0.1 4002.5860000000002
-0.1 0.0
-0.1 0.0 3983.0960000000005
-0.1 0.1
-0.1 0.1 3997.2180000000003
-0.1 0.2
-0.1 0.2 4062.796
-0.1 0.3
-0.1 0.3 4017.5419999999995
-0.1 0.4
-0.1 0.4 3948.9060000000004
-0.1 0.5
-0.1 0.5 3947.614
-0.1 0.6
-0.1 0.6 3959.1540000000005
-0.1 0.7
-0.1 0.7 3975.166
-0.1 0.8
-0.1 0.8 3975.166
-0.1 0.9
-0.1 0.9 3975.166
-0.1 1.0
-0.1 1.0 3921.781999999999
-0.1 1.1
-0.1 1.1 3856.6539999999995
-0.1 1.2
-0.1 1.2 3886.1399999999994
-0.1 1.3
-0.1 1.3 3867.0979999999995
-0.1 1.4
-0.1 1.4 3867.0979999999995
-0.1 1.5
-0.1 1.5 3917.4899999999993
-0.1 1.6
-0.1 1.6 3877.5899999999992
-0.1 1.7
-0.1 1.7 3877.5899999999992
-0.1 1.8
-0.1 1.8 3953.2039999999997
-0.1 1.9
-0.1 1.9 4092.47
-0.1 2.0
-0.1 2.0 4092.47
-0.1 2.1
-0.1 2.1 4149.8640000000005
-0.1 2.2
-0.1 2.2 4119.352
-0.1 2.3
-0.1 2.3 4119.352
-0.1 2.4
-0.1 2.4 4119.352
-0.1 2.5
-0.1 2.5 4085.152
-0.1 2.6
-0.1 2.6 4125.316
-0.1 2.7
-0.1 2.7 4163.264
-0.1 2.8
-0.1 2.8 4205.584
-0.1 2.9
-0.1 2.9 4184.706
0.0 -3.0
0.0 -3.0 3887.276
0.0 -2.9
0.0 -2.9 3858.153999999999
0.0 -2.8
0.0 -2.8 3924.363999999999
0.0 -2.7
0.0 -2.7 3939.599999999999
0.0 -2.6
0.0 -2.6 3939.599999999999
0.0 -2.5
0.0 -2.5 3935.949999999999
0.0 -2.4
0.0 -2.4 3935.949999999999
0.0 -2.3
0.0 -2.3 3935.949999999999
0.0 -2.2
0.0 -2.2 3935.949999999999
0.0 -2.1
0.0 -2.1 3895.8479999999995
0.0 -2.0
0.0 -2.0 3895.8479999999995
0.0 -1.9
0.0 -1.9 3895.8479999999995
0.0 -1.8
0.0 -1.8 3895.8479999999995
0.0 -1.7
0.0 -1.7 3868.2179999999994
0.0 -1.6
0.0 -1.6 3837.6279999999992
0.0 -1.5
0.0 -1.5 3845.8639999999996
0.0 -1.4
0.0 -1.4 3911.0819999999994
0.0 -1.3
0.0 -1.3 3911.0819999999994
0.0 -1.2
0.0 -1.2 3854.7379999999994
0.0 -1.1
0.0 -1.1 3854.7379999999994
0.0 -1.0
0.0 -1.0 3899.5299999999993
0.0 -0.9
0.0 -0.9 3879.382
0.0 -0.8
0.0 -0.8 3930.1259999999993
0.0 -0.7
0.0 -0.7 3909.685
0.0 -0.6
0.0 -0.6 3889.8309999999997
0.0 -0.5
0.0 -0.5 3912.446
0.0 -0.4
0.0 -0.4 3951.5319999999997
0.0 -0.3
0.0 -0.3 3944.63
0.0 -0.2
0.0 -0.2 3970.006
0.0 -0.1
0.0 -0.1 4002.498
0.0 0.0
0.0 0.0 3977.244
0.0 0.1
0.0 0.1 4031.9060000000004
0.0 0.2
0.0 0.2 3925.416000000001
0.0 0.3
0.0 0.3 3847.5980000000004
0.0 0.4
0.0 0.4 3919.264000000001
0.0 0.5
0.0 0.5 3870.0180000000005
0.0 0.6
0.0 0.6 3870.0180000000005
0.0 0.7
0.0 0.7 3928.686
0.0 0.8
0.0 0.8 3937.01
0.0 0.9
0.0 0.9 3937.01
0.0 1.0
0.0 1.0 3856.6539999999995
0.0 1.1
0.0 1.1 3886.1399999999994
0.0 1.2
0.0 1.2 3880.3579999999993
0.0 1.3
0.0 1.3 3851.6499999999996
0.0 1.4
0.0 1.4 3937.557999999999
0.0 1.5
0.0 1.5 3946.5099999999993
0.0 1.6
0.0 1.6 3946.5099999999993
0.0 1.7
0.0 1.7 3877.5899999999992
0.0 1.8
0.0 1.8 3877.5899999999992
0.0 1.9
0.0 1.9 3968.99
0.0 2.0
0.0 2.0 4127.294
0.0 2.1
0.0 2.1 4120.94
0.0 2.2
0.0 2.2 4119.352
0.0 2.3
0.0 2.3 4119.352
0.0 2.4
0.0 2.4 4085.152
0.0 2.5
0.0 2.5 4085.152
0.0 2.6
0.0 2.6 4123.1
0.0 2.7
0.0 2.7 4195.33
0.0 2.8
0.0 2.8 4109.628
0.0 2.9
0.0 2.9 4154.266
0.1 -3.0
0.1 -3.0 3934.2839999999997
0.1 -2.9
0.1 -2.9 3858.9099999999994
0.1 -2.8
0.1 -2.8 3846.834
0.1 -2.7
0.1 -2.7 3888.0359999999996
0.1 -2.6
0.1 -2.6 3904.6639999999998
0.1 -2.5
0.1 -2.5 3893.8039999999996
0.1 -2.4
0.1 -2.4 3893.8039999999996
0.1 -2.3
0.1 -2.3 3865.874
0.1 -2.2
0.1 -2.2 3813.8879999999995
0.1 -2.1
0.1 -2.1 3813.8879999999995
0.1 -2.0
0.1 -2.0 3813.8879999999995
0.1 -1.9
0.1 -1.9 3797.5619999999994
0.1 -1.8
0.1 -1.8 3797.5619999999994
0.1 -1.7
0.1 -1.7 3797.5619999999994
0.1 -1.6
0.1 -1.6 3822.3599999999988
0.1 -1.5
0.1 -1.5 3822.3599999999988
0.1 -1.4
0.1 -1.4 3822.3599999999988
0.1 -1.3
0.1 -1.3 3875.7019999999993
0.1 -1.2
0.1 -1.2 3854.7379999999994
0.1 -1.1
0.1 -1.1 3854.7379999999994
0.1 -1.0
0.1 -1.0 3899.5299999999993
0.1 -0.9
0.1 -0.9 3840.1379999999995
0.1 -0.8
0.1 -0.8 3910.2719999999995
0.1 -0.7
0.1 -0.7 3902.4179999999997
0.1 -0.6
0.1 -0.6 3902.4179999999997
0.1 -0.5
0.1 -0.5 3921.1059999999998
0.1 -0.4
0.1 -0.4 3873.603999999999
0.1 -0.3
0.1 -0.3 3866.7019999999993
0.1 -0.2
0.1 -0.2 3866.7019999999993
0.1 -0.1
0.1 -0.1 3953.747999999999
0.1 0.0
0.1 0.0 3953.747999999999
0.1 0.1
0.1 0.1 3876.7480000000005
0.1 0.2
0.1 0.2 3913.2180000000003
0.1 0.3
0.1 0.3 3865.48
0.1 0.4
0.1 0.4 3828.5060000000008
0.1 0.5
0.1 0.5 3811.386000000001
0.1 0.6
0.1 0.6 3846.466000000001
0.1 0.7
0.1 0.7 3846.466000000001
0.1 0.8
0.1 0.8 3907.9940000000006
0.1 0.9
0.1 0.9 3907.9940000000006
0.1 1.0
0.1 1.0 3940.528
0.1 1.1
0.1 1.1 3925.4039999999995
0.1 1.2
0.1 1.2 3936.2639999999997
0.1 1.3
0.1 1.3 3981.7299999999996
0.1 1.4
0.1 1.4 3950.208
0.1 1.5
0.1 1.5 3950.208
0.1 1.6
0.1 1.6 3950.208
0.1 1.7
0.1 1.7 3991.8759999999997
0.1 1.8
0.1 1.8 4003.7199999999993
0.1 1.9
0.1 1.9 4009.9039999999995
0.1 2.0
0.1 2.0 4001.3779999999997
0.1 2.1
0.1 2.1 4034.948
0.1 2.2
0.1 2.2 4034.948
0.1 2.3
0.1 2.3 4070.6780000000003
0.1 2.4
0.1 2.4 4024.8039999999996
0.1 2.5
0.1 2.5 4062.752
0.1 2.6
0.1 2.6 4062.752
0.1 2.7
0.1 2.7 4116.93
0.1 2.8
0.1 2.8 4116.93
0.1 2.9
0.1 2.9 4165.856
0.2 -3.0
0.2 -3.0 3850.1009999999997
0.2 -2.9
0.2 -2.9 3866.7399999999993
0.2 -2.8
0.2 -2.8 3854.6639999999998
0.2 -2.7
0.2 -2.7 3863.4619999999995
0.2 -2.6
0.2 -2.6 3863.4619999999995
0.2 -2.5
0.2 -2.5 3870.9319999999993
0.2 -2.4
0.2 -2.4 3843.0019999999995
0.2 -2.3
0.2 -2.3 3813.8879999999995
0.2 -2.2
0.2 -2.2 3799.37
0.2 -2.1
0.2 -2.1 3799.37
0.2 -2.0
0.2 -2.0 3797.5619999999994
0.2 -1.9
0.2 -1.9 3797.5619999999994
0.2 -1.8
0.2 -1.8 3797.5619999999994
0.2 -1.7
0.2 -1.7 3797.5619999999994
0.2 -1.6
0.2 -1.6 3797.5619999999994
0.2 -1.5
0.2 -1.5 3823.1859999999997
0.2 -1.4
0.2 -1.4 3823.1859999999997
0.2 -1.3
0.2 -1.3 3790.066
0.2 -1.2
0.2 -1.2 3793.879999999999
0.2 -1.1
0.2 -1.1 3801.733999999999
0.2 -1.0
0.2 -1.0 3836.7259999999997
0.2 -0.9
0.2 -0.9 3807.017999999999
0.2 -0.8
0.2 -0.8 3807.017999999999
0.2 -0.7
0.2 -0.7 3877.9199999999987
0.2 -0.6
0.2 -0.6 3830.8979999999992
0.2 -0.5
0.2 -0.5 3937.0319999999997
0.2 -0.4
0.2 -0.4 3873.603999999999
0.2 -0.3
0.2 -0.3 3861.075999999999
0.2 -0.2
0.2 -0.2 3928.6419999999994
0.2 -0.1
0.2 -0.1 3953.747999999999
0.2 0.0
0.2 0.0 3855.7219999999998
0.2 0.1
0.2 0.1 3904.29
0.2 0.2
0.2 0.2 3856.5519999999997
0.2 0.3
0.2 0.3 3887.97
0.2 0.4
0.2 0.4 3887.97
0.2 0.5
0.2 0.5 3838.84
0.2 0.6
0.2 0.6 3831.836
0.2 0.7
0.2 0.7 3888.15
0.2 0.8
0.2 0.8 3922.15
0.2 0.9
0.2 0.9 3940.528
0.2 1.0
0.2 1.0 3940.528
0.2 1.1
0.2 1.1 3925.4139999999998
0.2 1.2
0.2 1.2 3925.4139999999998
0.2 1.3
0.2 1.3 3957.868
0.2 1.4
0.2 1.4 3955.27
0.2 1.5
0.2 1.5 3955.27
0.2 1.6
0.2 1.6 3955.27
0.2 1.7
0.2 1.7 3904.8779999999997
0.2 1.8
0.2 1.8 3995.29
0.2 1.9
0.2 1.9 4029.9359999999997
0.2 2.0
0.2 2.0 3979.952
0.2 2.1
0.2 2.1 3984.4
0.2 2.2
0.2 2.2 4033.24
0.2 2.3
0.2 2.3 4083.0
0.2 2.4
0.2 2.4 4120.948
0.2 2.5
0.2 2.5 4115.038
0.2 2.6
0.2 2.6 4116.93
0.2 2.7
0.2 2.7 4116.93
0.2 2.8
0.2 2.8 4116.93
0.2 2.9
0.2 2.9 4074.9120000000003
0.3 -3.0
0.3 -3.0 3850.1009999999997
0.3 -2.9
0.3 -2.9 3850.1009999999997
0.3 -2.8
0.3 -2.8 3860.2439999999997
0.3 -2.7
0.3 -2.7 3860.2439999999997
0.3 -2.6
0.3 -2.6 3827.834
0.3 -2.5
0.3 -2.5 3872.414
0.3 -2.4
0.3 -2.4 3774.028
0.3 -2.3
0.3 -2.3 3760.8089999999997
0.3 -2.2
0.3 -2.2 3788.051
0.3 -2.1
0.3 -2.1 3821.796
0.3 -2.0
0.3 -2.0 3821.796
0.3 -1.9
0.3 -1.9 3821.796
0.3 -1.8
0.3 -1.8 3821.796
0.3 -1.7
0.3 -1.7 3821.796
0.3 -1.6
0.3 -1.6 3790.066
0.3 -1.5
0.3 -1.5 3790.066
0.3 -1.4
0.3 -1.4 3790.066
0.3 -1.3
0.3 -1.3 3790.066
0.3 -1.2
0.3 -1.2 3799.8559999999998
0.3 -1.1
0.3 -1.1 3807.71
0.3 -1.0
0.3 -1.0 3807.71
0.3 -0.9
0.3 -0.9 3823.81
0.3 -0.8
0.3 -0.8 3830.428
0.3 -0.7
0.3 -0.7 3798.8599999999988
0.3 -0.6
0.3 -0.6 3887.636
0.3 -0.5
0.3 -0.5 3908.4619999999995
0.3 -0.4
0.3 -0.4 3874.5799999999995
0.3 -0.3
0.3 -0.3 3889.871999999999
0.3 -0.2
0.3 -0.2 3941.265999999999
0.3 -0.1
0.3 -0.1 3835.526
0.3 0.0
0.3 0.0 3856.5519999999997
0.3 0.1
0.3 0.1 3856.5519999999997
0.3 0.2
0.3 0.2 3818.5159999999996
0.3 0.3
0.3 0.3 3838.394
0.3 0.4
0.3 0.4 3766.76
0.3 0.5
0.3 0.5 3731.8119999999994
0.3 0.6
0.3 0.6 3831.836
0.3 0.7
0.3 0.7 3821.07
0.3 0.8
0.3 0.8 3884.6319999999996
0.3 0.9
0.3 0.9 3955.7719999999995
0.3 1.0
0.3 1.0 3960.1819999999993
0.3 1.1
0.3 1.1 3957.3519999999994
0.3 1.2
0.3 1.2 3958.1939999999995
0.3 1.3
0.3 1.3 3955.27
0.3 1.4
0.3 1.4 3966.6420000000003
0.3 1.5
0.3 1.5 3966.6420000000003
0.3 1.6
0.3 1.6 3966.6420000000003
0.3 1.7
0.3 1.7 3966.6420000000003
0.3 1.8
0.3 1.8 3994.744
0.3 1.9
0.3 1.9 3994.744
0.3 2.0
0.3 2.0 3928.972
0.3 2.1
0.3 2.1 3985.9840000000004
0.3 2.2
0.3 2.2 3985.9840000000004
0.3 2.3
0.3 2.3 4022.052
0.3 2.4
0.3 2.4 4014.73
0.3 2.5
0.3 2.5 4120.948
0.3 2.6
0.3 2.6 4120.948
0.3 2.7
0.3 2.7 4158.352
0.3 2.8
0.3 2.8 4068.56
0.3 2.9
0.3 2.9 4080.6760000000004
0.4 -3.0
0.4 -3.0 3885.7789999999995
0.4 -2.9
0.4 -2.9 3885.7789999999995
0.4 -2.8
0.4 -2.8 3889.3549999999996
0.4 -2.7
0.4 -2.7 3909.982
0.4 -2.6
0.4 -2.6 3796.1220000000003
0.4 -2.5
0.4 -2.5 3796.1220000000003
0.4 -2.4
0.4 -2.4 3800.314
0.4 -2.3
0.4 -2.3 3800.314
0.4 -2.2
0.4 -2.2 3800.314
0.4 -2.1
0.4 -2.1 3807.7419999999997
0.4 -2.0
0.4 -2.0 3807.7419999999997
0.4 -1.9
0.4 -1.9 3807.7419999999997
0.4 -1.8
0.4 -1.8 3800.044
0.4 -1.7
0.4 -1.7 3790.066
0.4 -1.6
0.4 -1.6 3783.616
0.4 -1.5
0.4 -1.5 3783.616
0.4 -1.4
0.4 -1.4 3783.616
0.4 -1.3
0.4 -1.3 3783.616
0.4 -1.2
0.4 -1.2 3833.7659999999996
0.4 -1.1
0.4 -1.1 3807.71
0.4 -1.0
0.4 -1.0 3799.792
0.4 -0.9
0.4 -0.9 3828.37
0.4 -0.8
0.4 -0.8 3837.544
0.4 -0.7
0.4 -0.7 3837.544
0.4 -0.6
0.4 -0.6 3853.4019999999996
0.4 -0.5
0.4 -0.5 3823.268
0.4 -0.4
0.4 -0.4 3911.6819999999993
0.4 -0.3
0.4 -0.3 3892.6499999999987
0.4 -0.2
0.4 -0.2 3872.116
0.4 -0.1
0.4 -0.1 3760.866
0.4 0.0
0.4 0.0 3774.14
0.4 0.1
0.4 0.1 3746.8819999999996
0.4 0.2
0.4 0.2 3797.244
0.4 0.3
0.4 0.3 3766.76
0.4 0.4
0.4 0.4 3813.132
0.4 0.5
0.4 0.5 3778.1839999999997
0.4 0.6
0.4 0.6 3814.8779999999992
0.4 0.7
0.4 0.7 3867.4419999999996
0.4 0.8
0.4 0.8 3886.0919999999996
0.4 0.9
0.4 0.9 3940.6219999999994
0.4 1.0
0.4 1.0 3940.758
0.4 1.1
0.4 1.1 3916.512
0.4 1.2
0.4 1.2 3987.386
0.4 1.3
0.4 1.3 3966.6420000000003
0.4 1.4
0.4 1.4 3966.6420000000003
0.4 1.5
0.4 1.5 3966.6420000000003
0.4 1.6
0.4 1.6 3966.6420000000003
0.4 1.7
0.4 1.7 3966.6420000000003
0.4 1.8
0.4 1.8 3916.25
0.4 1.9
0.4 1.9 3958.6820000000002
0.4 2.0
0.4 2.0 3958.6820000000002
0.4 2.1
0.4 2.1 3928.972
0.4 2.2
0.4 2.2 4077.406
0.4 2.3
0.4 2.3 3999.2519999999995
0.4 2.4
0.4 2.4 4136.684
0.4 2.5
0.4 2.5 4136.684
0.4 2.6
0.4 2.6 4090.69
0.4 2.7
0.4 2.7 4090.69
0.4 2.8
0.4 2.8 4168.304
0.4 2.9
0.4 2.9 4177.701999999999
0.5 -3.0
0.5 -3.0 3885.7789999999995
0.5 -2.9
0.5 -2.9 3902.124
0.5 -2.8
0.5 -2.8 3794.508
0.5 -2.7
0.5 -2.7 3854.3639999999996
0.5 -2.6
0.5 -2.6 3850.0679999999998
0.5 -2.5
0.5 -2.5 3800.314
0.5 -2.4
0.5 -2.4 3800.314
0.5 -2.3
0.5 -2.3 3800.314
0.5 -2.2
0.5 -2.2 3800.314
0.5 -2.1
0.5 -2.1 3800.314
0.5 -2.0
0.5 -2.0 3756.3779999999997
0.5 -1.9
0.5 -1.9 3809.9999999999995
0.5 -1.8
0.5 -1.8 3793.5939999999996
0.5 -1.7
0.5 -1.7 3803.116
0.5 -1.6
0.5 -1.6 3784.1939999999995
0.5 -1.5
0.5 -1.5 3784.1939999999995
0.5 -1.4
0.5 -1.4 3784.1939999999995
0.5 -1.3
0.5 -1.3 3783.616
0.5 -1.2
0.5 -1.2 3833.7659999999996
0.5 -1.1
0.5 -1.1 3833.7659999999996
0.5 -1.0
0.5 -1.0 3799.792
0.5 -0.9
0.5 -0.9 3837.544
0.5 -0.8
0.5 -0.8 3837.544
0.5 -0.7
0.5 -0.7 3826.9359999999997
0.5 -0.6
0.5 -0.6 3823.5819999999994
0.5 -0.5
0.5 -0.5 3842.9599999999996
0.5 -0.4
0.5 -0.4 3826.406
0.5 -0.3
0.5 -0.3 3828.11
0.5 -0.2
0.5 -0.2 3830.1739999999995
0.5 -0.1
0.5 -0.1 3780.002
0.5 0.0
0.5 0.0 3778.4359999999997
0.5 0.1
0.5 0.1 3769.53
0.5 0.2
0.5 0.2 3800.156
0.5 0.3
0.5 0.3 3800.156
0.5 0.4
0.5 0.4 3862.046
0.5 0.5
0.5 0.5 3779.7979999999993
0.5 0.6
0.5 0.6 3862.9079999999994
0.5 0.7
0.5 0.7 3890.4719999999998
0.5 0.8
0.5 0.8 3905.043999999999
0.5 0.9
0.5 0.9 3930.986
0.5 1.0
0.5 1.0 3966.618
0.5 1.1
0.5 1.1 3957.7319999999995
0.5 1.2
0.5 1.2 3963.6839999999997
0.5 1.3
0.5 1.3 3984.462
0.5 1.4
0.5 1.4 3966.6420000000003
0.5 1.5
0.5 1.5 3966.6420000000003
0.5 1.6
0.5 1.6 3966.6420000000003
0.5 1.7
0.5 1.7 3966.6420000000003
0.5 1.8
0.5 1.8 3966.6420000000003
0.5 1.9
0.5 1.9 3926.062
0.5 2.0
0.5 2.0 3958.6820000000002
0.5 2.1
0.5 2.1 3958.6820000000002
0.5 2.2
0.5 2.2 3995.5780000000004
0.5 2.3
0.5 2.3 4136.684
0.5 2.4
0.5 2.4 4136.684
0.5 2.5
0.5 2.5 4136.684
0.5 2.6
0.5 2.6 4136.684
0.5 2.7
0.5 2.7 4026.1360000000004
0.5 2.8
0.5 2.8 4068.16
0.5 2.9
0.5 2.9 4142.682
0.6 -3.0
0.6 -3.0 3748.475999999999
0.6 -2.9
0.6 -2.9 3763.3579999999997
0.6 -2.8
0.6 -2.8 3854.3639999999996
0.6 -2.7
0.6 -2.7 3800.314
0.6 -2.6
0.6 -2.6 3800.314
0.6 -2.5
0.6 -2.5 3800.314
0.6 -2.4
0.6 -2.4 3800.314
0.6 -2.3
0.6 -2.3 3800.314
0.6 -2.2
0.6 -2.2 3774.0409999999997
0.6 -2.1
0.6 -2.1 3774.0409999999997
0.6 -2.0
0.6 -2.0 3809.9999999999995
0.6 -1.9
0.6 -1.9 3809.9999999999995
0.6 -1.8
0.6 -1.8 3806.4399999999996
0.6 -1.7
0.6 -1.7 3806.4399999999996
0.6 -1.6
0.6 -1.6 3784.1419999999994
0.6 -1.5
0.6 -1.5 3784.1939999999995
0.6 -1.4
0.6 -1.4 3784.1939999999995
0.6 -1.3
0.6 -1.3 3784.1939999999995
0.6 -1.2
0.6 -1.2 3768.8679999999995
0.6 -1.1
0.6 -1.1 3768.8679999999995
0.6 -1.0
0.6 -1.0 3768.8679999999995
0.6 -0.9
0.6 -0.9 3806.517999999999
0.6 -0.8
0.6 -0.8 3805.9399999999996
0.6 -0.7
0.6 -0.7 3837.656
0.6 -0.6
0.6 -0.6 3832.236
0.6 -0.5
0.6 -0.5 3782.458
0.6 -0.4
0.6 -0.4 3768.822
0.6 -0.3
0.6 -0.3 3837.0139999999997
0.6 -0.2
0.6 -0.2 3780.0959999999995
0.6 -0.1
0.6 -0.1 3808.4639999999995
0.6 0.0
0.6 0.0 3801.374
0.6 0.1
0.6 0.1 3807.59
0.6 0.2
0.6 0.2 3805.064
0.6 0.3
0.6 0.3 3845.438
0.6 0.4
0.6 0.4 3883.0539999999996
0.6 0.5
0.6 0.5 3845.3559999999998
0.6 0.6
0.6 0.6 3845.3559999999998
0.6 0.7
0.6 0.7 3878.0759999999996
0.6 0.8
0.6 0.8 3927.9719999999998
0.6 0.9
0.6 0.9 3925.0599999999995
0.6 1.0
0.6 1.0 4005.8459999999995
0.6 1.1
0.6 1.1 4001.06
0.6 1.2
0.6 1.2 4024.5979999999995
0.6 1.3
0.6 1.3 3981.1399999999994
0.6 1.4
0.6 1.4 4029.4619999999995
0.6 1.5
0.6 1.5 4029.4619999999995
0.6 1.6
0.6 1.6 3985.5779999999995
0.6 1.7
0.6 1.7 3977.82
0.6 1.8
0.6 1.8 4011.136
0.6 1.9
0.6 1.9 3977.79
0.6 2.0
0.6 2.0 3977.79
0.6 2.1
0.6 2.1 4042.926
0.6 2.2
0.6 2.2 4042.926
0.6 2.3
0.6 2.3 4010.136
0.6 2.4
0.6 2.4 4088.6240000000003
0.6 2.5
0.6 2.5 4088.6240000000003
0.6 2.6
0.6 2.6 4001.83
0.6 2.7
0.6 2.7 4068.2819999999997
0.6 2.8
0.6 2.8 4068.2819999999997
0.6 2.9
0.6 2.9 4115.679999999999
0.7 -3.0
0.7 -3.0 3768.5919999999987
0.7 -2.9
0.7 -2.9 3764.609999999999
0.7 -2.8
0.7 -2.8 3782.9769999999994
0.7 -2.7
0.7 -2.7 3775.720999999999
0.7 -2.6
0.7 -2.6 3769.2709999999993
0.7 -2.5
0.7 -2.5 3790.9239999999995
0.7 -2.4
0.7 -2.4 3790.9239999999995
0.7 -2.3
0.7 -2.3 3790.9239999999995
0.7 -2.2
0.7 -2.2 3790.9239999999995
0.7 -2.1
0.7 -2.1 3790.9239999999995
0.7 -2.0
0.7 -2.0 3790.9239999999995
0.7 -1.9
0.7 -1.9 3790.9239999999995
0.7 -1.8
0.7 -1.8 3758.215999999999
0.7 -1.7
0.7 -1.7 3758.215999999999
0.7 -1.6
0.7 -1.6 3758.215999999999
0.7 -1.5
0.7 -1.5 3758.215999999999
0.7 -1.4
0.7 -1.4 3752.0019999999995
0.7 -1.3
0.7 -1.3 3782.6859999999997
0.7 -1.2
0.7 -1.2 3764.888
0.7 -1.1
0.7 -1.1 3764.888
0.7 -1.0
0.7 -1.0 3764.888
0.7 -0.9
0.7 -0.9 3806.517999999999
0.7 -0.8
0.7 -0.8 3800.25
0.7 -0.7
0.7 -0.7 3833.7859999999996
0.7 -0.6
0.7 -0.6 3865.62
0.7 -0.5
0.7 -0.5 3791.866
0.7 -0.4
0.7 -0.4 3778.23
0.7 -0.3
0.7 -0.3 3837.0139999999997
0.7 -0.2
0.7 -0.2 3808.4639999999995
0.7 -0.1
0.7 -0.1 3837.198
0.7 0.0
0.7 0.0 3836.948
0.7 0.1
0.7 0.1 3838.928
0.7 0.2
0.7 0.2 3850.4839999999995
0.7 0.3
0.7 0.3 3920.382
0.7 0.4
0.7 0.4 3889.062
0.7 0.5
0.7 0.5 3929.518
0.7 0.6
0.7 0.6 3918.474
0.7 0.7
0.7 0.7 3907.99
0.7 0.8
0.7 0.8 3920.36
0.7 0.9
0.7 0.9 3927.9719999999998
0.7 1.0
0.7 1.0 4026.42
0.7 1.1
0.7 1.1 4040.406
0.7 1.2
0.7 1.2 4026.7639999999997
0.7 1.3
0.7 1.3 4012.0860000000002
0.7 1.4
0.7 1.4 4029.4619999999995
0.7 1.5
0.7 1.5 4029.4619999999995
0.7 1.6
0.7 1.6 4029.4619999999995
0.7 1.7
0.7 1.7 4029.4619999999995
0.7 1.8
0.7 1.8 3856.6639999999998
0.7 1.9
0.7 1.9 4054.522
0.7 2.0
0.7 2.0 4054.522
0.7 2.1
0.7 2.1 4008.4440000000004
0.7 2.2
0.7 2.2 4042.926
0.7 2.3
0.7 2.3 4010.136
0.7 2.4
0.7 2.4 4010.136
0.7 2.5
0.7 2.5 4088.6240000000003
0.7 2.6
0.7 2.6 4001.83
0.7 2.7
0.7 2.7 4068.2819999999997
0.7 2.8
0.7 2.8 4068.2819999999997
0.7 2.9
0.7 2.9 4039.859999999999
0.8 -3.0
0.8 -3.0 3790.629999999999
0.8 -2.9
0.8 -2.9 3758.1599999999994
0.8 -2.8
0.8 -2.8 3776.5269999999996
0.8 -2.7
0.8 -2.7 3769.2709999999993
0.8 -2.6
0.8 -2.6 3769.2709999999993
0.8 -2.5
0.8 -2.5 3790.9239999999995
0.8 -2.4
0.8 -2.4 3790.9239999999995
0.8 -2.3
0.8 -2.3 3790.9239999999995
0.8 -2.2
0.8 -2.2 3790.9239999999995
0.8 -2.1
0.8 -2.1 3790.9239999999995
0.8 -2.0
0.8 -2.0 3758.215999999999
0.8 -1.9
0.8 -1.9 3758.215999999999
0.8 -1.8
0.8 -1.8 3758.215999999999
0.8 -1.7
0.8 -1.7 3758.215999999999
0.8 -1.6
0.8 -1.6 3760.158
0.8 -1.5
0.8 -1.5 3760.158
0.8 -1.4
0.8 -1.4 3760.158
0.8 -1.3
0.8 -1.3 3764.888
0.8 -1.2
0.8 -1.2 3764.888
0.8 -1.1
0.8 -1.1 3764.888
0.8 -1.0
0.8 -1.0 3777.94
0.8 -0.9
0.8 -0.9 3771.6719999999996
0.8 -0.8
0.8 -0.8 3838.2339999999995
0.8 -0.7
0.8 -0.7 3808.03
0.8 -0.6
0.8 -0.6 3792.8379999999997
0.8 -0.5
0.8 -0.5 3777.5039999999995
0.8 -0.4
0.8 -0.4 3778.23
0.8 -0.3
0.8 -0.3 3766.2459999999996
0.8 -0.2
0.8 -0.2 3846.606
0.8 -0.1
0.8 -0.1 3846.606
0.8 0.0
0.8 0.0 3840.618
0.8 0.1
0.8 0.1 3839.9320000000002
0.8 0.2
0.8 0.2 3870.4039999999995
0.8 0.3
0.8 0.3 3877.0199999999995
0.8 0.4
0.8 0.4 3957.609999999999
0.8 0.5
0.8 0.5 3918.474
0.8 0.6
0.8 0.6 3946.6519999999996
0.8 0.7
0.8 0.7 3946.6519999999996
0.8 0.8
0.8 0.8 3946.6519999999996
0.8 0.9
0.8 0.9 3973.9019999999996
0.8 1.0
0.8 1.0 4004.954
0.8 1.1
0.8 1.1 4040.406
0.8 1.2
0.8 1.2 4026.7639999999997
0.8 1.3
0.8 1.3 4012.0860000000002
0.8 1.4
0.8 1.4 4031.6279999999997
0.8 1.5
0.8 1.5 4031.6279999999997
0.8 1.6
0.8 1.6 4031.6279999999997
0.8 1.7
0.8 1.7 3940.0399999999995
0.8 1.8
0.8 1.8 4029.6659999999997
0.8 1.9
0.8 1.9 3992.81
0.8 2.0
0.8 2.0 3992.81
0.8 2.1
0.8 2.1 3945.0440000000003
0.8 2.2
0.8 2.2 4008.4440000000004
0.8 2.3
0.8 2.3 4067.0440000000003
0.8 2.4
0.8 2.4 4067.0440000000003
0.8 2.5
0.8 2.5 4067.0440000000003
0.8 2.6
0.8 2.6 3989.9539999999997
0.8 2.7
0.8 2.7 3989.9539999999997
0.8 2.8
0.8 2.8 4003.0039999999995
0.8 2.9
0.8 2.9 4039.859999999999
0.9 -3.0
0.9 -3.0 3800.5499999999993
0.9 -2.9
0.9 -2.9 3758.1599999999994
0.9 -2.8
0.9 -2.8 3776.5269999999996
0.9 -2.7
0.9 -2.7 3769.2709999999993
0.9 -2.6
0.9 -2.6 3769.2709999999993
0.9 -2.5
0.9 -2.5 3769.2709999999993
0.9 -2.4
0.9 -2.4 3790.9239999999995
0.9 -2.3
0.9 -2.3 3790.9239999999995
0.9 -2.2
0.9 -2.2 3760.158
0.9 -2.1
0.9 -2.1 3760.158
0.9 -2.0
0.9 -2.0 3760.158
0.9 -1.9
0.9 -1.9 3760.158
0.9 -1.8
0.9 -1.8 3760.158
0.9 -1.7
0.9 -1.7 3760.158
0.9 -1.6
0.9 -1.6 3710.288
0.9 -1.5
0.9 -1.5 3672.6479999999997
0.9 -1.4
0.9 -1.4 3672.6479999999997
0.9 -1.3
0.9 -1.3 3755.47
0.9 -1.2
0.9 -1.2 3764.888
0.9 -1.1
0.9 -1.1 3764.888
0.9 -1.0
0.9 -1.0 3771.6719999999996
0.9 -0.9
0.9 -0.9 3771.6719999999996
0.9 -0.8
0.9 -0.8 3812.3219999999997
0.9 -0.7
0.9 -0.7 3808.03
0.9 -0.6
0.9 -0.6 3792.8379999999997
0.9 -0.5
0.9 -0.5 3864.4339999999997
0.9 -0.4
0.9 -0.4 3806.598
0.9 -0.3
0.9 -0.3 3766.2459999999996
0.9 -0.2
0.9 -0.2 3766.2459999999996
0.9 -0.1
0.9 -0.1 3873.34
0.9 0.0
0.9 0.0 3873.34
0.9 0.1
0.9 0.1 3891.08
0.9 0.2
0.9 0.2 3849.828
0.9 0.3
0.9 0.3 3909.3839999999996
0.9 0.4
0.9 0.4 3918.926
0.9 0.5
0.9 0.5 3889.8540000000003
0.9 0.6
0.9 0.6 3889.8540000000003
0.9 0.7
0.9 0.7 3946.6519999999996
0.9 0.8
0.9 0.8 3946.6519999999996
0.9 0.9
0.9 0.9 3973.9019999999996
0.9 1.0
0.9 1.0 4039.506
0.9 1.1
0.9 1.1 4031.868
0.9 1.2
0.9 1.2 4031.868
0.9 1.3
0.9 1.3 3991.3260000000005
0.9 1.4
0.9 1.4 4010.868
0.9 1.5
0.9 1.5 4031.6279999999997
0.9 1.6
0.9 1.6 4031.6279999999997
0.9 1.7
0.9 1.7 4028.1479999999997
0.9 1.8
0.9 1.8 3995.465999999999
0.9 1.9
0.9 1.9 3991.198
0.9 2.0
0.9 2.0 4070.228
0.9 2.1
0.9 2.1 4022.4619999999995
0.9 2.2
0.9 2.2 4022.4619999999995
0.9 2.3
0.9 2.3 4064.812
0.9 2.4
0.9 2.4 4064.812
0.9 2.5
0.9 2.5 4067.0440000000003
0.9 2.6
0.9 2.6 3989.9539999999997
0.9 2.7
0.9 2.7 3989.9539999999997
0.9 2.8
0.9 2.8 3989.9539999999997
0.9 2.9
0.9 2.9 4027.8639999999996
1.0 -3.0
1.0 -3.0 3800.5499999999993
1.0 -2.9
1.0 -2.9 3800.5499999999993
1.0 -2.8
1.0 -2.8 3776.5269999999996
1.0 -2.7
1.0 -2.7 3769.2709999999993
1.0 -2.6
1.0 -2.6 3769.2709999999993
1.0 -2.5
1.0 -2.5 3738.504999999999
1.0 -2.4
1.0 -2.4 3760.158
1.0 -2.3
1.0 -2.3 3760.158
1.0 -2.2
1.0 -2.2 3760.158
1.0 -2.1
1.0 -2.1 3760.158
1.0 -2.0
1.0 -2.0 3749.6819999999993
1.0 -1.9
1.0 -1.9 3749.6819999999993
1.0 -1.8
1.0 -1.8 3749.6819999999993
1.0 -1.7
1.0 -1.7 3672.6479999999997
1.0 -1.6
1.0 -1.6 3672.6479999999997
1.0 -1.5
1.0 -1.5 3672.6479999999997
1.0 -1.4
1.0 -1.4 3672.6479999999997
1.0 -1.3
1.0 -1.3 3755.47
1.0 -1.2
1.0 -1.2 3732.038
1.0 -1.1
1.0 -1.1 3771.6719999999996
1.0 -1.0
1.0 -1.0 3772.486
1.0 -0.9
1.0 -0.9 3772.486
1.0 -0.8
1.0 -0.8 3808.03
1.0 -0.7
1.0 -0.7 3792.8379999999997
1.0 -0.6
1.0 -0.6 3821.205999999999
1.0 -0.5
1.0 -0.5 3864.4339999999997
1.0 -0.4
1.0 -0.4 3806.598
1.0 -0.3
1.0 -0.3 3766.2459999999996
1.0 -0.2
1.0 -0.2 3858.71
1.0 -0.1
1.0 -0.1 3874.47
1.0 0.0
1.0 0.0 3874.47
1.0 0.1
1.0 0.1 3876.45
1.0 0.2
1.0 0.2 3894.7539999999995
1.0 0.3
1.0 0.3 3894.7539999999995
1.0 0.4
1.0 0.4 3883.886
1.0 0.5
1.0 0.5 3883.886
1.0 0.6
1.0 0.6 3959.5159999999996
1.0 0.7
1.0 0.7 3951.3119999999994
1.0 0.8
1.0 0.8 3964.7859999999996
1.0 0.9
1.0 0.9 3946.6519999999996
1.0 1.0
1.0 1.0 4039.506
1.0 1.1
1.0 1.1 4022.1940000000004
1.0 1.2
1.0 1.2 4031.868
1.0 1.3
1.0 1.3 3991.3260000000005
1.0 1.4
1.0 1.4 4010.868
1.0 1.5
1.0 1.5 4010.868
1.0 1.6
1.0 1.6 4010.868
1.0 1.7
1.0 1.7 4006.6499999999996
1.0 1.8
1.0 1.8 4006.6499999999996
1.0 1.9
1.0 1.9 3995.465999999999
1.0 2.0
1.0 2.0 4070.228
1.0 2.1
1.0 2.1 4022.4619999999995
1.0 2.2
1.0 2.2 4022.4619999999995
1.0 2.3
1.0 2.3 4006.578
1.0 2.4
1.0 2.4 4050.0799999999995
1.0 2.5
1.0 2.5 4050.0799999999995
1.0 2.6
1.0 2.6 4048.6219999999994
1.0 2.7
1.0 2.7 4048.6219999999994
1.0 2.8
1.0 2.8 4058.3179999999993
1.0 2.9
1.0 2.9 4029.8959999999997
1.1 -3.0
1.1 -3.0 3800.5499999999993
1.1 -2.9
1.1 -2.9 3800.5499999999993
1.1 -2.8
1.1 -2.8 3814.2309999999993
1.1 -2.7
1.1 -2.7 3738.504999999999
1.1 -2.6
1.1 -2.6 3738.504999999999
1.1 -2.5
1.1 -2.5 3738.504999999999
1.1 -2.4
1.1 -2.4 3710.288
1.1 -2.3
1.1 -2.3 3710.288
1.1 -2.2
1.1 -2.2 3710.288
1.1 -2.1
1.1 -2.1 3710.288
1.1 -2.0
1.1 -2.0 3749.6819999999993
1.1 -1.9
1.1 -1.9 3712.0419999999995
1.1 -1.8
1.1 -1.8 3672.6479999999997
1.1 -1.7
1.1 -1.7 3672.6479999999997
1.1 -1.6
1.1 -1.6 3672.6479999999997
1.1 -1.5
1.1 -1.5 3672.6479999999997
1.1 -1.4
1.1 -1.4 3705.32
1.1 -1.3
1.1 -1.3 3759.926
1.1 -1.2
1.1 -1.2 3711.7459999999996
1.1 -1.1
1.1 -1.1 3776.6339999999996
1.1 -1.0
1.1 -1.0 3772.486
1.1 -0.9
1.1 -0.9 3820.5339999999997
1.1 -0.8
1.1 -0.8 3808.03
1.1 -0.7
1.1 -0.7 3821.205999999999
1.1 -0.6
1.1 -0.6 3821.205999999999
1.1 -0.5
1.1 -0.5 3864.4339999999997
1.1 -0.4
1.1 -0.4 3772.664
1.1 -0.3
1.1 -0.3 3815.408
1.1 -0.2
1.1 -0.2 3815.408
1.1 -0.1
1.1 -0.1 3865.1279999999997
1.1 0.0
1.1 0.0 3865.1279999999997
1.1 0.1
1.1 0.1 3867.1079999999997
1.1 0.2
1.1 0.2 3881.379999999999
1.1 0.3
1.1 0.3 3915.848
1.1 0.4
1.1 0.4 3915.848
1.1 0.5
1.1 0.5 3950.1739999999995
1.1 0.6
1.1 0.6 3951.3119999999994
1.1 0.7
1.1 0.7 3951.3119999999994
1.1 0.8
1.1 0.8 3949.859999999999
1.1 0.9
1.1 0.9 3949.859999999999
1.1 1.0
1.1 1.0 3907.4119999999994
1.1 1.1
1.1 1.1 3997.29
1.1 1.2
1.1 1.2 4031.868
1.1 1.3
1.1 1.3 3991.3260000000005
1.1 1.4
1.1 1.4 4010.868
1.1 1.5
1.1 1.5 4010.868
1.1 1.6
1.1 1.6 4010.868
1.1 1.7
1.1 1.7 4006.6499999999996
1.1 1.8
1.1 1.8 4006.6499999999996
1.1 1.9
1.1 1.9 4007.3999999999996
1.1 2.0
1.1 2.0 3972.594
1.1 2.1
1.1 2.1 3972.594
1.1 2.2
1.1 2.2 3972.594
1.1 2.3
1.1 2.3 3996.748
1.1 2.4
1.1 2.4 4008.1599999999994
1.1 2.5
1.1 2.5 3992.348
1.1 2.6
1.1 2.6 4009.1539999999995
1.1 2.7
1.1 2.7 4014.8779999999997
1.1 2.8
1.1 2.8 4014.8779999999997
1.1 2.9
1.1 2.9 3986.4559999999997
1.2 -3.0
1.2 -3.0 3795.8639999999996
1.2 -2.9
1.2 -2.9 3795.8639999999996
1.2 -2.8
1.2 -2.8 3844.2559999999994
1.2 -2.7
1.2 -2.7 3775.7859999999996
1.2 -2.6
1.2 -2.6 3768.5299999999993
1.2 -2.5
1.2 -2.5 3768.5299999999993
1.2 -2.4
1.2 -2.4 3768.5299999999993
1.2 -2.3
1.2 -2.3 3710.288
1.2 -2.2
1.2 -2.2 3710.288
1.2 -2.1
1.2 -2.1 3749.6819999999993
1.2 -2.0
1.2 -2.0 3712.0419999999995
1.2 -1.9
1.2 -1.9 3672.6479999999997
1.2 -1.8
1.2 -1.8 3672.6479999999997
1.2 -1.7
1.2 -1.7 3672.6479999999997
1.2 -1.6
1.2 -1.6 3672.6479999999997
1.2 -1.5
1.2 -1.5 3672.6479999999997
1.2 -1.4
1.2 -1.4 3709.776
1.2 -1.3
1.2 -1.3 3758.7139999999995
1.2 -1.2
1.2 -1.2 3776.6339999999996
1.2 -1.1
1.2 -1.1 3776.6339999999996
1.2 -1.0
1.2 -1.0 3776.6339999999996
1.2 -0.9
1.2 -0.9 3820.5339999999997
1.2 -0.8
1.2 -0.8 3821.205999999999
1.2 -0.7
1.2 -0.7 3821.205999999999
1.2 -0.6
1.2 -0.6 3798.47
1.2 -0.5
1.2 -0.5 3864.4339999999997
1.2 -0.4
1.2 -0.4 3772.664
1.2 -0.3
1.2 -0.3 3815.408
1.2 -0.2
1.2 -0.2 3815.408
1.2 -0.1
1.2 -0.1 3865.1279999999997
1.2 0.0
1.2 0.0 3865.1279999999997
1.2 0.1
1.2 0.1 3878.276
1.2 0.2
1.2 0.2 3851.7659999999996
1.2 0.3
1.2 0.3 3915.848
1.2 0.4
1.2 0.4 3944.537999999999
1.2 0.5
1.2 0.5 3946.2719999999995
1.2 0.6
1.2 0.6 3941.9699999999993
1.2 0.7
1.2 0.7 3941.9699999999993
1.2 0.8
1.2 0.8 3940.518
1.2 0.9
1.2 0.9 3940.518
1.2 1.0
1.2 1.0 3872.658
1.2 1.1
1.2 1.1 3932.62
1.2 1.2
1.2 1.2 3932.62
1.2 1.3
1.2 1.3 3947.406
1.2 1.4
1.2 1.4 3926.97
1.2 1.5
1.2 1.5 4018.388
1.2 1.6
1.2 1.6 3991.8520000000003
1.2 1.7
1.2 1.7 4006.6499999999996
1.2 1.8
1.2 1.8 4007.3999999999996
1.2 1.9
1.2 1.9 4007.3999999999996
1.2 2.0
1.2 2.0 3959.6339999999996
1.2 2.1
1.2 2.1 3972.594
1.2 2.2
1.2 2.2 3910.0139999999997
1.2 2.3
1.2 2.3 3885.2639999999997
1.2 2.4
1.2 2.4 3902.0699999999993
1.2 2.5
1.2 2.5 3913.5119999999997
1.2 2.6
1.2 2.6 3945.5519999999997
1.2 2.7
1.2 2.7 4014.8779999999997
1.2 2.8
1.2 2.8 3986.4559999999997
1.2 2.9
1.2 2.9 3986.4559999999997
1.3 -3.0
1.3 -3.0 3807.0719999999997
1.3 -2.9
1.3 -2.9 3801.5019999999995
1.3 -2.8
1.3 -2.8 3775.7859999999996
1.3 -2.7
1.3 -2.7 3775.7859999999996
1.3 -2.6
1.3 -2.6 3768.5299999999993
1.3 -2.5
1.3 -2.5 3768.5299999999993
1.3 -2.4
1.3 -2.4 3768.5299999999993
1.3 -2.3
1.3 -2.3 3710.288
1.3 -2.2
1.3 -2.2 3712.0419999999995
1.3 -2.1
1.3 -2.1 3712.0419999999995
1.3 -2.0
1.3 -2.0 3706.0619999999994
1.3 -1.9
1.3 -1.9 3706.0619999999994
1.3 -1.8
1.3 -1.8 3706.0619999999994
1.3 -1.7
1.3 -1.7 3706.0619999999994
1.3 -1.6
1.3 -1.6 3672.6479999999997
1.3 -1.5
1.3 -1.5 3677.104
1.3 -1.4
1.3 -1.4 3709.776
1.3 -1.3
1.3 -1.3 3784.468
1.3 -1.2
1.3 -1.2 3776.6339999999996
1.3 -1.1
1.3 -1.1 3776.6339999999996
1.3 -1.0
1.3 -1.0 3870.583999999999
1.3 -0.9
1.3 -0.9 3805.3419999999996
1.3 -0.8
1.3 -0.8 3821.205999999999
1.3 -0.7
1.3 -0.7 3798.47
1.3 -0.6
1.3 -0.6 3798.47
1.3 -0.5
1.3 -0.5 3798.47
1.3 -0.4
1.3 -0.4 3802.19
1.3 -0.3
1.3 -0.3 3815.408
1.3 -0.2
1.3 -0.2 3815.408
1.3 -0.1
1.3 -0.1 3861.0960000000005
1.3 0.0
1.3 0.0 3861.0960000000005
1.3 0.1
1.3 0.1 3887.5619999999994
1.3 0.2
1.3 0.2 3851.7659999999996
1.3 0.3
1.3 0.3 3944.537999999999
1.3 0.4
1.3 0.4 3946.2719999999995
1.3 0.5
1.3 0.5 3937.9279999999994
1.3 0.6
1.3 0.6 3945.7199999999993
1.3 0.7
1.3 0.7 3941.9699999999993
1.3 0.8
1.3 0.8 3940.518
1.3 0.9
1.3 0.9 3865.5559999999996
1.3 1.0
1.3 1.0 3872.658
1.3 1.1
1.3 1.1 3844.57
1.3 1.2
1.3 1.2 3932.62
1.3 1.3
1.3 1.3 3878.8720000000003
1.3 1.4
1.3 1.4 3926.97
1.3 1.5
1.3 1.5 3926.97
1.3 1.6
1.3 1.6 3912.3619999999996
1.3 1.7
1.3 1.7 3912.3619999999996
1.3 1.8
1.3 1.8 3932.1279999999997
1.3 1.9
1.3 1.9 3932.1279999999997
1.3 2.0
1.3 2.0 3932.1279999999997
1.3 2.1
1.3 2.1 3959.6339999999996
1.3 2.2
1.3 2.2 3974.636
1.3 2.3
1.3 2.3 3902.0699999999993
1.3 2.4
1.3 2.4 3913.5119999999997
1.3 2.5
1.3 2.5 3906.215999999999
1.3 2.6
1.3 2.6 3906.215999999999
1.3 2.7
1.3 2.7 3906.215999999999
1.3 2.8
1.3 2.8 4021.2139999999995
1.3 2.9
1.3 2.9 3992.8519999999994
1.4 -3.0
1.4 -3.0 3801.5019999999995
1.4 -2.9
1.4 -2.9 3738.6019999999994
1.4 -2.8
1.4 -2.8 3775.7859999999996
1.4 -2.7
1.4 -2.7 3775.7859999999996
1.4 -2.6
1.4 -2.6 3801.5659999999993
1.4 -2.5
1.4 -2.5 3801.5659999999993
1.4 -2.4
1.4 -2.4 3756.6699999999996
1.4 -2.3
1.4 -2.3 3756.6699999999996
1.4 -2.2
1.4 -2.2 3756.6699999999996
1.4 -2.1
1.4 -2.1 3756.6699999999996
1.4 -2.0
1.4 -2.0 3756.6699999999996
1.4 -1.9
1.4 -1.9 3756.6699999999996
1.4 -1.8
1.4 -1.8 3756.6699999999996
1.4 -1.7
1.4 -1.7 3756.6699999999996
1.4 -1.6
1.4 -1.6 3761.1259999999993
1.4 -1.5
1.4 -1.5 3709.1919999999996
1.4 -1.4
1.4 -1.4 3816.5559999999996
1.4 -1.3
1.4 -1.3 3824.23
1.4 -1.2
1.4 -1.2 3776.6339999999996
1.4 -1.1
1.4 -1.1 3830.313999999999
1.4 -1.0
1.4 -1.0 3820.5339999999997
1.4 -0.9
1.4 -0.9 3798.47
1.4 -0.8
1.4 -0.8 3824.696
1.4 -0.7
1.4 -0.7 3824.696
1.4 -0.6
1.4 -0.6 3824.696
1.4 -0.5
1.4 -0.5 3874.7019999999993
1.4 -0.4
1.4 -0.4 3802.19
1.4 -0.3
1.4 -0.3 3815.408
1.4 -0.2
1.4 -0.2 3811.3759999999997
1.4 -0.1
1.4 -0.1 3811.3759999999997
1.4 0.0
1.4 0.0 3854.406
1.4 0.1
1.4 0.1 3887.5619999999994
1.4 0.2
1.4 0.2 3934.423999999999
1.4 0.3
1.4 0.3 3944.537999999999
1.4 0.4
1.4 0.4 3937.9279999999994
1.4 0.5
1.4 0.5 3937.5959999999995
1.4 0.6
1.4 0.6 3937.5959999999995
1.4 0.7
1.4 0.7 3936.616
1.4 0.8
1.4 0.8 3865.5559999999996
1.4 0.9
1.4 0.9 3865.5559999999996
1.4 1.0
1.4 1.0 3865.5559999999996
1.4 1.1
1.4 1.1 3844.57
1.4 1.2
1.4 1.2 3932.62
1.4 1.3
1.4 1.3 3878.8720000000003
1.4 1.4
1.4 1.4 3926.97
1.4 1.5
1.4 1.5 3926.97
1.4 1.6
1.4 1.6 3912.3619999999996
1.4 1.7
1.4 1.7 3912.3619999999996
1.4 1.8
1.4 1.8 3913.1119999999996
1.4 1.9
1.4 1.9 3913.1119999999996
1.4 2.0
1.4 2.0 3932.1279999999997
1.4 2.1
1.4 2.1 3948.934
1.4 2.2
1.4 2.2 3962.0759999999996
1.4 2.3
1.4 2.3 3954.78
1.4 2.4
1.4 2.4 3900.0419999999995
1.4 2.5
1.4 2.5 3900.0419999999995
1.4 2.6
1.4 2.6 3900.0419999999995
1.4 2.7
1.4 2.7 3900.0419999999995
1.4 2.8
1.4 2.8 3951.5219999999995
1.4 2.9
1.4 2.9 3998.8439999999996
1.5 -3.0
1.5 -3.0 3824.445999999999
1.5 -2.9
1.5 -2.9 3761.5459999999994
1.5 -2.8
1.5 -2.8 3801.5659999999993
1.5 -2.7
1.5 -2.7 3801.5659999999993
1.5 -2.6
1.5 -2.6 3809.9319999999993
1.5 -2.5
1.5 -2.5 3763.925999999999
1.5 -2.4
1.5 -2.4 3763.925999999999
1.5 -2.3
1.5 -2.3 3763.925999999999
1.5 -2.2
1.5 -2.2 3763.925999999999
1.5 -2.1
1.5 -2.1 3788.7579999999994
1.5 -2.0
1.5 -2.0 3788.7579999999994
1.5 -1.9
1.5 -1.9 3788.7579999999994
1.5 -1.8
1.5 -1.8 3788.7579999999994
1.5 -1.7
1.5 -1.7 3820.45
1.5 -1.6
1.5 -1.6 3820.45
1.5 -1.5
1.5 -1.5 3789.824
1.5 -1.4
1.5 -1.4 3863.702
1.5 -1.3
1.5 -1.3 3897.2859999999996
1.5 -1.2
1.5 -1.2 3878.1679999999997
1.5 -1.1
1.5 -1.1 3860.3979999999997
1.5 -1.0
1.5 -1.0 3886.36
1.5 -0.9
1.5 -0.9 3824.696
1.5 -0.8
1.5 -0.8 3824.696
1.5 -0.7
1.5 -0.7 3824.696
1.5 -0.6
1.5 -0.6 3846.0159999999996
1.5 -0.5
1.5 -0.5 3835.0759999999996
1.5 -0.4
1.5 -0.4 3802.19
1.5 -0.3
1.5 -0.3 3811.3759999999997
1.5 -0.2
1.5 -0.2 3811.3759999999997
1.5 -0.1
1.5 -0.1 3813.03
1.5 0.0
1.5 0.0 3854.406
1.5 0.1
1.5 0.1 3971.3439999999996
1.5 0.2
1.5 0.2 3932.3839999999996
1.5 0.3
1.5 0.3 3943.1079999999997
1.5 0.4
1.5 0.4 3937.9279999999994
1.5 0.5
1.5 0.5 3937.5959999999995
1.5 0.6
1.5 0.6 3937.5959999999995
1.5 0.7
1.5 0.7 3873.084
1.5 0.8
1.5 0.8 3857.9039999999995
1.5 0.9
1.5 0.9 3857.9039999999995
1.5 1.0
1.5 1.0 3857.9039999999995
1.5 1.1
1.5 1.1 3818.2260000000006
1.5 1.2
1.5 1.2 3932.62
1.5 1.3
1.5 1.3 3878.8720000000003
1.5 1.4
1.5 1.4 3878.8720000000003
1.5 1.5
1.5 1.5 3926.97
1.5 1.6
1.5 1.6 3927.834
1.5 1.7
1.5 1.7 3913.1119999999996
1.5 1.8
1.5 1.8 3913.1119999999996
1.5 1.9
1.5 1.9 3929.9179999999997
1.5 2.0
1.5 2.0 3929.9179999999997
1.5 2.1
1.5 2.1 3941.638
1.5 2.2
1.5 2.2 3876.36
1.5 2.3
1.5 2.3 3954.78
1.5 2.4
1.5 2.4 3900.0419999999995
1.5 2.5
1.5 2.5 3900.0419999999995
1.5 2.6
1.5 2.6 3900.0419999999995
1.5 2.7
1.5 2.7 3900.0419999999995
1.5 2.8
1.5 2.8 3951.5219999999995
1.5 2.9
1.5 2.9 3998.8439999999996
1.6 -3.0
1.6 -3.0 3791.0989999999997
1.6 -2.9
1.6 -2.9 3769.911999999999
1.6 -2.8
1.6 -2.8 3809.9319999999993
1.6 -2.7
1.6 -2.7 3873.8699999999994
1.6 -2.6
1.6 -2.6 3873.8699999999994
1.6 -2.5
1.6 -2.5 3873.8699999999994
1.6 -2.4
1.6 -2.4 3873.8699999999994
1.6 -2.3
1.6 -2.3 3853.7739999999994
1.6 -2.2
1.6 -2.2 3853.7739999999994
1.6 -2.1
1.6 -2.1 3853.7739999999994
1.6 -2.0
1.6 -2.0 3853.7739999999994
1.6 -1.9
1.6 -1.9 3853.7739999999994
1.6 -1.8
1.6 -1.8 3853.7739999999994
1.6 -1.7
1.6 -1.7 3800.0679999999998
1.6 -1.6
1.6 -1.6 3800.0679999999998
1.6 -1.5
1.6 -1.5 3862.88
1.6 -1.4
1.6 -1.4 3897.2859999999996
1.6 -1.3
1.6 -1.3 3897.2859999999996
1.6 -1.2
1.6 -1.2 3961.903999999999
1.6 -1.1
1.6 -1.1 3872.19
1.6 -1.0
1.6 -1.0 3856.258
1.6 -0.9
1.6 -0.9 3858.0619999999994
1.6 -0.8
1.6 -0.8 3824.696
1.6 -0.7
1.6 -0.7 3846.0159999999996
1.6 -0.6
1.6 -0.6 3876.1379999999995
1.6 -0.5
1.6 -0.5 3835.0759999999996
1.6 -0.4
1.6 -0.4 3811.3759999999997
1.6 -0.3
1.6 -0.3 3811.3759999999997
1.6 -0.2
1.6 -0.2 3813.03
1.6 -0.1
1.6 -0.1 3857.856
1.6 0.0
1.6 0.0 3910.5419999999995
1.6 0.1
1.6 0.1 3971.3439999999996
1.6 0.2
1.6 0.2 3932.3839999999996
1.6 0.3
1.6 0.3 3943.1079999999997
1.6 0.4
1.6 0.4 3937.9279999999994
1.6 0.5
1.6 0.5 3936.616
1.6 0.6
1.6 0.6 3918.598
1.6 0.7
1.6 0.7 3873.084
1.6 0.8
1.6 0.8 3873.084
1.6 0.9
1.6 0.9 3857.9039999999995
1.6 1.0
1.6 1.0 3857.9039999999995
1.6 1.1
1.6 1.1 3818.2260000000006
1.6 1.2
1.6 1.2 3818.2260000000006
1.6 1.3
1.6 1.3 3878.8720000000003
1.6 1.4
1.6 1.4 3878.8720000000003
1.6 1.5
1.6 1.5 3921.288
1.6 1.6
1.6 1.6 3927.834
1.6 1.7
1.6 1.7 3926.028
1.6 1.8
1.6 1.8 3929.9179999999997
1.6 1.9
1.6 1.9 3929.9179999999997
1.6 2.0
1.6 2.0 3922.6219999999994
1.6 2.1
1.6 2.1 3857.3439999999996
1.6 2.2
1.6 2.2 3876.36
1.6 2.3
1.6 2.3 3887.644
1.6 2.4
1.6 2.4 3904.2259999999997
1.6 2.5
1.6 2.5 3900.0419999999995
1.6 2.6
1.6 2.6 3900.0419999999995
1.6 2.7
1.6 2.7 3900.0419999999995
1.6 2.8
1.6 2.8 3923.16
1.6 2.9
1.6 2.9 3998.8439999999996
1.7 -3.0
1.7 -3.0 3880.993
1.7 -2.9
1.7 -2.9 3880.993
1.7 -2.8
1.7 -2.8 3921.013
1.7 -2.7
1.7 -2.7 3873.8699999999994
1.7 -2.6
1.7 -2.6 3873.8699999999994
1.7 -2.5
1.7 -2.5 3873.8699999999994
1.7 -2.4
1.7 -2.4 3873.8699999999994
1.7 -2.3
1.7 -2.3 3873.8699999999994
1.7 -2.2
1.7 -2.2 3853.7739999999994
1.7 -2.1
1.7 -2.1 3853.7739999999994
1.7 -2.0
1.7 -2.0 3853.7739999999994
1.7 -1.9
1.7 -1.9 3853.7739999999994
1.7 -1.8
1.7 -1.8 3853.7739999999994
1.7 -1.7
1.7 -1.7 3800.0679999999998
1.7 -1.6
1.7 -1.6 3797.848
1.7 -1.5
1.7 -1.5 3903.5759999999996
1.7 -1.4
1.7 -1.4 3897.2859999999996
1.7 -1.3
1.7 -1.3 3897.2859999999996
1.7 -1.2
1.7 -1.2 3899.2919999999995
1.7 -1.1
1.7 -1.1 3856.258
1.7 -1.0
1.7 -1.0 3858.9619999999995
1.7 -0.9
1.7 -0.9 3858.9619999999995
1.7 -0.8
1.7 -0.8 3846.0159999999996
1.7 -0.7
1.7 -0.7 3876.1379999999995
1.7 -0.6
1.7 -0.6 3876.1379999999995
1.7 -0.5
1.7 -0.5 3806.308
1.7 -0.4
1.7 -0.4 3811.3759999999997
1.7 -0.3
1.7 -0.3 3813.03
1.7 -0.2
1.7 -0.2 3857.856
1.7 -0.1
1.7 -0.1 3857.856
1.7 0.0
1.7 0.0 3971.3439999999996
1.7 0.1
1.7 0.1 3969.3039999999996
1.7 0.2
1.7 0.2 3932.3839999999996
1.7 0.3
1.7 0.3 3943.1079999999997
1.7 0.4
1.7 0.4 3949.2459999999996
1.7 0.5
1.7 0.5 3885.7139999999995
1.7 0.6
1.7 0.6 3931.227999999999
1.7 0.7
1.7 0.7 3885.7139999999995
1.7 0.8
1.7 0.8 3873.084
1.7 0.9
1.7 0.9 3873.084
1.7 1.0
1.7 1.0 3857.9039999999995
1.7 1.1
1.7 1.1 3818.2260000000006
1.7 1.2
1.7 1.2 3818.2260000000006
1.7 1.3
1.7 1.3 3852.5280000000002
1.7 1.4
1.7 1.4 3823.1
1.7 1.5
1.7 1.5 3862.3759999999997
1.7 1.6
1.7 1.6 3938.0939999999996
1.7 1.7
1.7 1.7 3926.028
1.7 1.8
1.7 1.8 3918.7319999999995
1.7 1.9
1.7 1.9 3922.6219999999994
1.7 2.0
1.7 2.0 3857.3439999999996
1.7 2.1
1.7 2.1 3857.3439999999996
1.7 2.2
1.7 2.2 3857.3439999999996
1.7 2.3
1.7 2.3 3887.644
1.7 2.4
1.7 2.4 3966.0640000000003
1.7 2.5
1.7 2.5 3966.0640000000003
1.7 2.6
1.7 2.6 3966.0640000000003
1.7 2.7
1.7 2.7 3886.1620000000003
1.7 2.8
1.7 2.8 3923.16
1.7 2.9
1.7 2.9 3998.8439999999996
1.8 -3.0
1.8 -3.0 3880.993
1.8 -2.9
1.8 -2.9 3852.3509999999997
1.8 -2.8
1.8 -2.8 3892.3709999999996
1.8 -2.7
1.8 -2.7 3892.3709999999996
1.8 -2.6
1.8 -2.6 3873.8699999999994
1.8 -2.5
1.8 -2.5 3873.8699999999994
1.8 -2.4
1.8 -2.4 3873.8699999999994
1.8 -2.3
1.8 -2.3 3873.8699999999994
1.8 -2.2
1.8 -2.2 3873.8699999999994
1.8 -2.1
1.8 -2.1 3853.7739999999994
1.8 -2.0
1.8 -2.0 3853.7739999999994
1.8 -1.9
1.8 -1.9 3853.7739999999994
1.8 -1.8
1.8 -1.8 3790.4759999999997
1.8 -1.7
1.8 -1.7 3797.848
1.8 -1.6
1.8 -1.6 3903.5759999999996
1.8 -1.5
1.8 -1.5 3895.506
1.8 -1.4
1.8 -1.4 3897.2859999999996
1.8 -1.3
1.8 -1.3 3899.2919999999995
1.8 -1.2
1.8 -1.2 3919.7859999999996
1.8 -1.1
1.8 -1.1 3856.258
1.8 -1.0
1.8 -1.0 3858.9619999999995
1.8 -0.9
1.8 -0.9 3880.2819999999997
1.8 -0.8
1.8 -0.8 3876.1379999999995
1.8 -0.7
1.8 -0.7 3876.1379999999995
1.8 -0.6
1.8 -0.6 3855.874
1.8 -0.5
1.8 -0.5 3811.8520000000003
1.8 -0.4
1.8 -0.4 3813.03
1.8 -0.3
1.8 -0.3 3912.37
1.8 -0.2
1.8 -0.2 3857.856
1.8 -0.1
1.8 -0.1 3857.856
1.8 0.0
1.8 0.0 3971.3439999999996
1.8 0.1
1.8 0.1 3969.3039999999996
1.8 0.2
1.8 0.2 3973.017999999999
1.8 0.3
1.8 0.3 3915.7919999999995
1.8 0.4
1.8 0.4 3949.2459999999996
1.8 0.5
1.8 0.5 3885.7139999999995
1.8 0.6
1.8 0.6 3885.7139999999995
1.8 0.7
1.8 0.7 3885.7139999999995
1.8 0.8
1.8 0.8 3885.7139999999995
1.8 0.9
1.8 0.9 3885.7139999999995
1.8 1.0
1.8 1.0 3885.7139999999995
1.8 1.1
1.8 1.1 3830.856
1.8 1.2
1.8 1.2 3830.856
1.8 1.3
1.8 1.3 3865.1580000000004
1.8 1.4
1.8 1.4 3748.7540000000004
1.8 1.5
1.8 1.5 3862.3759999999997
1.8 1.6
1.8 1.6 3862.3759999999997
1.8 1.7
1.8 1.7 3862.3759999999997
1.8 1.8
1.8 1.8 3918.7319999999995
1.8 1.9
1.8 1.9 3853.4539999999997
1.8 2.0
1.8 2.0 3853.4539999999997
1.8 2.1
1.8 2.1 3857.3439999999996
1.8 2.2
1.8 2.2 3857.3439999999996
1.8 2.3
1.8 2.3 3887.644
1.8 2.4
1.8 2.4 3887.644
1.8 2.5
1.8 2.5 3890.3460000000005
1.8 2.6
1.8 2.6 3890.3460000000005
1.8 2.7
1.8 2.7 3937.6420000000003
1.8 2.8
1.8 2.8 3956.518
1.8 2.9
1.8 2.9 3923.16
1.9 -3.0
1.9 -3.0 3852.3509999999997
1.9 -2.9
1.9 -2.9 3852.3509999999997
1.9 -2.8
1.9 -2.8 3892.3709999999996
1.9 -2.7
1.9 -2.7 3892.3709999999996
1.9 -2.6
1.9 -2.6 3892.3709999999996
1.9 -2.5
1.9 -2.5 3873.8699999999994
1.9 -2.4
1.9 -2.4 3862.6899999999996
1.9 -2.3
1.9 -2.3 3862.6899999999996
1.9 -2.2
1.9 -2.2 3862.6899999999996
1.9 -2.1
1.9 -2.1 3862.6899999999996
1.9 -2.0
1.9 -2.0 3851.5539999999996
1.9 -1.9
1.9 -1.9 3851.5539999999996
1.9 -1.8
1.9 -1.8 3797.848
1.9 -1.7
1.9 -1.7 3898.238
1.9 -1.6
1.9 -1.6 3903.5759999999996
1.9 -1.5
1.9 -1.5 3953.0499999999993
1.9 -1.4
1.9 -1.4 3981.0979999999995
1.9 -1.3
1.9 -1.3 3899.2919999999995
1.9 -1.2
1.9 -1.2 3879.8479999999995
1.9 -1.1
1.9 -1.1 3870.9179999999997
1.9 -1.0
1.9 -1.0 3880.2819999999997
1.9 -0.9
1.9 -0.9 3876.1379999999995
1.9 -0.8
1.9 -0.8 3876.1379999999995
1.9 -0.7
1.9 -0.7 3852.9139999999998
1.9 -0.6
1.9 -0.6 3811.05
1.9 -0.5
1.9 -0.5 3811.8520000000003
1.9 -0.4
1.9 -0.4 3912.37
1.9 -0.3
1.9 -0.3 3912.37
1.9 -0.2
1.9 -0.2 3912.37
1.9 -0.1
1.9 -0.1 3857.856
1.9 0.0
1.9 0.0 3969.3039999999996
1.9 0.1
1.9 0.1 3969.3039999999996
1.9 0.2
1.9 0.2 3954.6919999999996
1.9 0.3
1.9 0.3 3927.11
1.9 0.4
1.9 0.4 3858.3979999999997
1.9 0.5
1.9 0.5 3885.7139999999995
1.9 0.6
1.9 0.6 3863.6339999999996
1.9 0.7
1.9 0.7 3863.6339999999996
1.9 0.8
1.9 0.8 3903.9339999999997
1.9 0.9
1.9 0.9 3885.7139999999995
1.9 1.0
1.9 1.0 3885.7139999999995
1.9 1.1
1.9 1.1 3892.816
1.9 1.2
1.9 1.2 3830.856
1.9 1.3
1.9 1.3 3815.784
1.9 1.4
1.9 1.4 3765.56
1.9 1.5
1.9 1.5 3862.3759999999997
1.9 1.6
1.9 1.6 3862.3759999999997
1.9 1.7
1.9 1.7 3862.3759999999997
1.9 1.8
1.9 1.8 3862.3759999999997
1.9 1.9
1.9 1.9 3853.4539999999997
1.9 2.0
1.9 2.0 3853.4539999999997
1.9 2.1
1.9 2.1 3853.4539999999997
1.9 2.2
1.9 2.2 3887.644
1.9 2.3
1.9 2.3 3887.644
1.9 2.4
1.9 2.4 3887.644
1.9 2.5
1.9 2.5 3890.3460000000005
1.9 2.6
1.9 2.6 3890.3460000000005
1.9 2.7
1.9 2.7 3937.6420000000003
1.9 2.8
1.9 2.8 3956.518
1.9 2.9
1.9 2.9 3932.798
2.0 -3.0
2.0 -3.0 3852.3509999999997
2.0 -2.9
2.0 -2.9 3852.3509999999997
2.0 -2.8
2.0 -2.8 3892.3709999999996
2.0 -2.7
2.0 -2.7 3892.3709999999996
2.0 -2.6
2.0 -2.6 3892.3709999999996
2.0 -2.5
2.0 -2.5 3892.3709999999996
2.0 -2.4
2.0 -2.4 3862.6899999999996
2.0 -2.3
2.0 -2.3 3862.6899999999996
2.0 -2.2
2.0 -2.2 3862.6899999999996
2.0 -2.1
2.0 -2.1 3862.6899999999996
2.0 -2.0
2.0 -2.0 3862.6899999999996
2.0 -1.9
2.0 -1.9 3872.0489999999995
2.0 -1.8
2.0 -1.8 3898.238
2.0 -1.7
2.0 -1.7 3903.5759999999996
2.0 -1.6
2.0 -1.6 3953.0499999999993
2.0 -1.5
2.0 -1.5 3953.0499999999993
2.0 -1.4
2.0 -1.4 3935.2799999999993
2.0 -1.3
2.0 -1.3 3899.2919999999995
2.0 -1.2
2.0 -1.2 3865.7259999999997
2.0 -1.1
2.0 -1.1 3870.9179999999997
2.0 -1.0
2.0 -1.0 3932.543999999999
2.0 -0.9
2.0 -0.9 3895.3179999999993
2.0 -0.8
2.0 -0.8 3901.2239999999997
2.0 -0.7
2.0 -0.7 3852.9139999999998
2.0 -0.6
2.0 -0.6 3811.05
2.0 -0.5
2.0 -0.5 3928.6139999999996
2.0 -0.4
2.0 -0.4 3912.37
2.0 -0.3
2.0 -0.3 3912.37
2.0 -0.2
2.0 -0.2 3912.37
2.0 -0.1
2.0 -0.1 3911.47
2.0 0.0
2.0 0.0 3969.3039999999996
2.0 0.1
2.0 0.1 3971.037999999999
2.0 0.2
2.0 0.2 3952.7119999999995
2.0 0.3
2.0 0.3 3874.966
2.0 0.4
2.0 0.4 3874.966
2.0 0.5
2.0 0.5 3850.788
2.0 0.6
2.0 0.6 3863.6339999999996
2.0 0.7
2.0 0.7 3863.6339999999996
2.0 0.8
2.0 0.8 3903.9339999999997
2.0 0.9
2.0 0.9 3885.7139999999995
2.0 1.0
2.0 1.0 3885.7139999999995
2.0 1.1
2.0 1.1 3892.816
2.0 1.2
2.0 1.2 3864.728
2.0 1.3
2.0 1.3 3815.784
2.0 1.4
2.0 1.4 3765.56
2.0 1.5
2.0 1.5 3862.3759999999997
2.0 1.6
2.0 1.6 3862.3759999999997
2.0 1.7
2.0 1.7 3862.3759999999997
2.0 1.8
2.0 1.8 3862.3759999999997
2.0 1.9
2.0 1.9 3853.4539999999997
2.0 2.0
2.0 2.0 3853.4539999999997
2.0 2.1
2.0 2.1 3853.4539999999997
2.0 2.2
2.0 2.2 3883.7539999999995
2.0 2.3
2.0 2.3 3887.644
2.0 2.4
2.0 2.4 3887.644
2.0 2.5
2.0 2.5 3887.644
2.0 2.6
2.0 2.6 3890.3460000000005
2.0 2.7
2.0 2.7 3937.6420000000003
2.0 2.8
2.0 2.8 3901.938
2.0 2.9
2.0 2.9 3932.798
2.1 -3.0
2.1 -3.0 3814.2229999999995
2.1 -2.9
2.1 -2.9 3852.3509999999997
2.1 -2.8
2.1 -2.8 3892.3709999999996
2.1 -2.7
2.1 -2.7 3892.3709999999996
2.1 -2.6
2.1 -2.6 3892.3709999999996
2.1 -2.5
2.1 -2.5 3892.3709999999996
2.1 -2.4
2.1 -2.4 3892.3709999999996
2.1 -2.3
2.1 -2.3 3892.3709999999996
2.1 -2.2
2.1 -2.2 3862.6899999999996
2.1 -2.1
2.1 -2.1 3862.6899999999996
2.1 -2.0
2.1 -2.0 3883.1849999999995
2.1 -1.9
2.1 -1.9 3920.0329999999994
2.1 -1.8
2.1 -1.8 3876.9729999999995
2.1 -1.7
2.1 -1.7 3919.7439999999997
2.1 -1.6
2.1 -1.6 3953.0499999999993
2.1 -1.5
2.1 -1.5 3935.2799999999993
2.1 -1.4
2.1 -1.4 3920.1199999999994
2.1 -1.3
2.1 -1.3 3845.9719999999998
2.1 -1.2
2.1 -1.2 3879.0019999999995
2.1 -1.1
2.1 -1.1 3956.5079999999994
2.1 -1.0
2.1 -1.0 3961.6999999999994
2.1 -0.9
2.1 -0.9 3901.2239999999997
2.1 -0.8
2.1 -0.8 3852.9139999999998
2.1 -0.7
2.1 -0.7 3852.9139999999998
2.1 -0.6
2.1 -0.6 3867.9240000000004
2.1 -0.5
2.1 -0.5 3969.3639999999996
2.1 -0.4
2.1 -0.4 3912.37
2.1 -0.3
2.1 -0.3 3912.37
2.1 -0.2
2.1 -0.2 3912.37
2.1 -0.1
2.1 -0.1 3911.47
2.1 0.0
2.1 0.0 3969.3039999999996
2.1 0.1
2.1 0.1 3971.037999999999
2.1 0.2
2.1 0.2 3923.7419999999997
2.1 0.3
2.1 0.3 3895.8979999999992
2.1 0.4
2.1 0.4 3895.8979999999992
2.1 0.5
2.1 0.5 3850.788
2.1 0.6
2.1 0.6 3850.788
2.1 0.7
2.1 0.7 3863.6339999999996
2.1 0.8
2.1 0.8 3836.34
2.1 0.9
2.1 0.9 3885.7139999999995
2.1 1.0
2.1 1.0 3903.9339999999997
2.1 1.1
2.1 1.1 3911.0359999999996
2.1 1.2
2.1 1.2 3911.0359999999996
2.1 1.3
2.1 1.3 3748.7540000000004
2.1 1.4
2.1 1.4 3765.56
2.1 1.5
2.1 1.5 3765.56
2.1 1.6
2.1 1.6 3862.3759999999997
2.1 1.7
2.1 1.7 3862.3759999999997
2.1 1.8
2.1 1.8 3862.3759999999997
2.1 1.9
2.1 1.9 3862.3759999999997
2.1 2.0
2.1 2.0 3853.4539999999997
2.1 2.1
2.1 2.1 3883.7539999999995
2.1 2.2
2.1 2.2 3883.7539999999995
2.1 2.3
2.1 2.3 3883.7539999999995
2.1 2.4
2.1 2.4 3883.7539999999995
2.1 2.5
2.1 2.5 3887.644
2.1 2.6
2.1 2.6 3866.9639999999995
2.1 2.7
2.1 2.7 3913.922
2.1 2.8
2.1 2.8 3901.938
2.1 2.9
2.1 2.9 3901.938
2.2 -3.0
2.2 -3.0 3814.2229999999995
2.2 -2.9
2.2 -2.9 3852.3509999999997
2.2 -2.8
2.2 -2.8 3892.3709999999996
2.2 -2.7
2.2 -2.7 3892.3709999999996
2.2 -2.6
2.2 -2.6 3892.3709999999996
2.2 -2.5
2.2 -2.5 3892.3709999999996
2.2 -2.4
2.2 -2.4 3892.3709999999996
2.2 -2.3
2.2 -2.3 3892.3709999999996
2.2 -2.2
2.2 -2.2 3892.3709999999996
2.2 -2.1
2.2 -2.1 3883.1849999999995
2.2 -2.0
2.2 -2.0 3920.0329999999994
2.2 -1.9
2.2 -1.9 3865.3269999999993
2.2 -1.8
2.2 -1.8 3934.516999999999
2.2 -1.7
2.2 -1.7 3947.180999999999
2.2 -1.6
2.2 -1.6 3965.937999999999
2.2 -1.5
2.2 -1.5 3920.1199999999994
2.2 -1.4
2.2 -1.4 3842.053999999999
2.2 -1.3
2.2 -1.3 3839.008
2.2 -1.2
2.2 -1.2 3943.073999999999
2.2 -1.1
2.2 -1.1 3956.5079999999994
2.2 -1.0
2.2 -1.0 3911.0919999999996
2.2 -0.9
2.2 -0.9 3848.4279999999994
2.2 -0.8
2.2 -0.8 3848.4279999999994
2.2 -0.7
2.2 -0.7 3929.33
2.2 -0.6
2.2 -0.6 3867.9240000000004
2.2 -0.5
2.2 -0.5 3973.63
2.2 -0.4
2.2 -0.4 3887.54
2.2 -0.3
2.2 -0.3 3912.37
2.2 -0.2
2.2 -0.2 3912.37
2.2 -0.1
2.2 -0.1 3969.3039999999996
2.2 0.0
2.2 0.0 3971.037999999999
2.2 0.1
2.2 0.1 3894.3179999999998
2.2 0.2
2.2 0.2 3890.6259999999997
2.2 0.3
2.2 0.3 3895.8979999999992
2.2 0.4
2.2 0.4 3895.8979999999992
2.2 0.5
2.2 0.5 3895.8979999999992
2.2 0.6
2.2 0.6 3850.788
2.2 0.7
2.2 0.7 3850.788
2.2 0.8
2.2 0.8 3836.34
2.2 0.9
2.2 0.9 3836.34
2.2 1.0
2.2 1.0 3899.816
2.2 1.1
2.2 1.1 3911.0359999999996
2.2 1.2
2.2 1.2 3911.0359999999996
2.2 1.3
2.2 1.3 3765.56
2.2 1.4
2.2 1.4 3765.56
2.2 1.5
2.2 1.5 3765.56
2.2 1.6
2.2 1.6 3862.3759999999997
2.2 1.7
2.2 1.7 3862.3759999999997
2.2 1.8
2.2 1.8 3862.3759999999997
2.2 1.9
2.2 1.9 3862.3759999999997
2.2 2.0
2.2 2.0 3853.4539999999997
2.2 2.1
2.2 2.1 3883.7539999999995
2.2 2.2
2.2 2.2 3883.7539999999995
2.2 2.3
2.2 2.3 3883.7539999999995
2.2 2.4
2.2 2.4 3863.0739999999996
2.2 2.5
2.2 2.5 3863.0739999999996
2.2 2.6
2.2 2.6 3866.9639999999995
2.2 2.7
2.2 2.7 3901.938
2.2 2.8
2.2 2.8 3901.938
2.2 2.9
2.2 2.9 3901.938
2.3 -3.0
2.3 -3.0 3814.2229999999995
2.3 -2.9
2.3 -2.9 3852.3509999999997
2.3 -2.8
2.3 -2.8 3892.3709999999996
2.3 -2.7
2.3 -2.7 3892.3709999999996
2.3 -2.6
2.3 -2.6 3892.3709999999996
2.3 -2.5
2.3 -2.5 3892.3709999999996
2.3 -2.4
2.3 -2.4 3892.3709999999996
2.3 -2.3
2.3 -2.3 3892.3709999999996
2.3 -2.2
2.3 -2.2 3920.258999999999
2.3 -2.1
2.3 -2.1 3929.2189999999996
2.3 -2.0
2.3 -2.0 3865.3269999999993
2.3 -1.9
2.3 -1.9 3945.9319999999993
2.3 -1.8
2.3 -1.8 3921.808
2.3 -1.7
2.3 -1.7 3921.379999999999
2.3 -1.6
2.3 -1.6 3903.609999999999
2.3 -1.5
2.3 -1.5 3881.9919999999997
2.3 -1.4
2.3 -1.4 3881.3919999999994
2.3 -1.3
2.3 -1.3 3939.5599999999995
2.3 -1.2
2.3 -1.2 3943.073999999999
2.3 -1.1
2.3 -1.1 3956.5079999999994
2.3 -1.0
2.3 -1.0 3911.0919999999996
2.3 -0.9
2.3 -0.9 3848.4279999999994
2.3 -0.8
2.3 -0.8 3929.33
2.3 -0.7
2.3 -0.7 3887.466
2.3 -0.6
2.3 -0.6 3874.29
2.3 -0.5
2.3 -0.5 3874.29
2.3 -0.4
2.3 -0.4 3887.54
2.3 -0.3
2.3 -0.3 3887.54
2.3 -0.2
2.3 -0.2 3887.54
2.3 -0.1
2.3 -0.1 3943.176
2.3 0.0
2.3 0.0 3894.3179999999998
2.3 0.1
2.3 0.1 3894.3179999999998
2.3 0.2
2.3 0.2 3890.6259999999997
2.3 0.3
2.3 0.3 3895.8979999999992
2.3 0.4
2.3 0.4 3895.8979999999992
2.3 0.5
2.3 0.5 3895.8979999999992
2.3 0.6
2.3 0.6 3895.7239999999997
2.3 0.7
2.3 0.7 3850.788
2.3 0.8
2.3 0.8 3819.3759999999997
2.3 0.9
2.3 0.9 3832.222
2.3 1.0
2.3 1.0 3899.816
2.3 1.1
2.3 1.1 3899.816
2.3 1.2
2.3 1.2 3911.0359999999996
2.3 1.3
2.3 1.3 3765.56
2.3 1.4
2.3 1.4 3765.56
2.3 1.5
2.3 1.5 3765.56
2.3 1.6
2.3 1.6 3765.56
2.3 1.7
2.3 1.7 3862.3759999999997
2.3 1.8
2.3 1.8 3862.3759999999997
2.3 1.9
2.3 1.9 3862.3759999999997
2.3 2.0
2.3 2.0 3853.4539999999997
2.3 2.1
2.3 2.1 3883.7539999999995
2.3 2.2
2.3 2.2 3883.7539999999995
2.3 2.3
2.3 2.3 3863.0739999999996
2.3 2.4
2.3 2.4 3863.0739999999996
2.3 2.5
2.3 2.5 3863.0739999999996
2.3 2.6
2.3 2.6 3870.936
2.3 2.7
2.3 2.7 3901.938
2.3 2.8
2.3 2.8 3901.938
2.3 2.9
2.3 2.9 3901.938
2.4 -3.0
2.4 -3.0 3814.2229999999995
2.4 -2.9
2.4 -2.9 3852.3509999999997
2.4 -2.8
2.4 -2.8 3892.3709999999996
2.4 -2.7
2.4 -2.7 3892.3709999999996
2.4 -2.6
2.4 -2.6 3892.3709999999996
2.4 -2.5
2.4 -2.5 3892.3709999999996
2.4 -2.4
2.4 -2.4 3892.3709999999996
2.4 -2.3
2.4 -2.3 3920.258999999999
2.4 -2.2
2.4 -2.2 3929.2189999999996
2.4 -2.1
2.4 -2.1 3929.2189999999996
2.4 -2.0
2.4 -2.0 3944.7849999999994
2.4 -1.9
2.4 -1.9 3924.1119999999996
2.4 -1.8
2.4 -1.8 3921.379999999999
2.4 -1.7
2.4 -1.7 3903.609999999999
2.4 -1.6
2.4 -1.6 3903.609999999999
2.4 -1.5
2.4 -1.5 3863.671999999999
2.4 -1.4
2.4 -1.4 3933.4079999999994
2.4 -1.3
2.4 -1.3 3953.1619999999994
2.4 -1.2
2.4 -1.2 3956.5079999999994
2.4 -1.1
2.4 -1.1 3956.5079999999994
2.4 -1.0
2.4 -1.0 3921.6799999999994
2.4 -0.9
2.4 -0.9 3929.33
2.4 -0.8
2.4 -0.8 3929.33
2.4 -0.7
2.4 -0.7 3887.466
2.4 -0.6
2.4 -0.6 3874.29
2.4 -0.5
2.4 -0.5 3874.29
2.4 -0.4
2.4 -0.4 3887.54
2.4 -0.3
2.4 -0.3 3887.54
2.4 -0.2
2.4 -0.2 3887.54
2.4 -0.1
2.4 -0.1 3868.19
2.4 0.0
2.4 0.0 3894.3179999999998
2.4 0.1
2.4 0.1 3894.3179999999998
2.4 0.2
2.4 0.2 3881.446
2.4 0.3
2.4 0.3 3892.6059999999998
2.4 0.4
2.4 0.4 3895.8979999999992
2.4 0.5
2.4 0.5 3891.7799999999993
2.4 0.6
2.4 0.6 3891.7799999999993
2.4 0.7
2.4 0.7 3909.8259999999996
2.4 0.8
2.4 0.8 3819.3759999999997
2.4 0.9
2.4 0.9 3819.3759999999997
2.4 1.0
2.4 1.0 3881.5959999999995
2.4 1.1
2.4 1.1 3899.816
2.4 1.2
2.4 1.2 3833.1540000000005
2.4 1.3
2.4 1.3 3765.56
2.4 1.4
2.4 1.4 3765.56
2.4 1.5
2.4 1.5 3765.56
2.4 1.6
2.4 1.6 3765.56
2.4 1.7
2.4 1.7 3862.3759999999997
2.4 1.8
2.4 1.8 3862.3759999999997
2.4 1.9
2.4 1.9 3862.3759999999997
2.4 2.0
2.4 2.0 3883.7539999999995
2.4 2.1
2.4 2.1 3863.0739999999996
2.4 2.2
2.4 2.2 3863.0739999999996
2.4 2.3
2.4 2.3 3863.0739999999996
2.4 2.4
2.4 2.4 3863.0739999999996
2.4 2.5
2.4 2.5 3870.936
2.4 2.6
2.4 2.6 3870.936
2.4 2.7
2.4 2.7 3901.938
2.4 2.8
2.4 2.8 3901.938
2.4 2.9
2.4 2.9 3901.938
2.5 -3.0
2.5 -3.0 3814.2229999999995
2.5 -2.9
2.5 -2.9 3852.3509999999997
2.5 -2.8
2.5 -2.8 3892.3709999999996
2.5 -2.7
2.5 -2.7 3892.3709999999996
2.5 -2.6
2.5 -2.6 3892.3709999999996
2.5 -2.5
2.5 -2.5 3892.3709999999996
2.5 -2.4
2.5 -2.4 3920.258999999999
2.5 -2.3
2.5 -2.3 3927.485
2.5 -2.2
2.5 -2.2 3929.2189999999996
2.5 -2.1
2.5 -2.1 3944.7849999999994
2.5 -2.0
2.5 -2.0 3944.7849999999994
2.5 -1.9
2.5 -1.9 3921.808
2.5 -1.8
2.5 -1.8 3921.379999999999
2.5 -1.7
2.5 -1.7 3903.609999999999
2.5 -1.6
2.5 -1.6 3989.8019999999997
2.5 -1.5
2.5 -1.5 3939.9399999999996
2.5 -1.4
2.5 -1.4 3939.9399999999996
2.5 -1.3
2.5 -1.3 3953.1619999999994
2.5 -1.2
2.5 -1.2 3956.2619999999997
2.5 -1.1
2.5 -1.1 3956.2619999999997
2.5 -1.0
2.5 -1.0 3916.2419999999997
2.5 -0.9
2.5 -0.9 3939.917999999999
2.5 -0.8
2.5 -0.8 3929.33
2.5 -0.7
2.5 -0.7 3867.9240000000004
2.5 -0.6
2.5 -0.6 3874.29
2.5 -0.5
2.5 -0.5 3874.29
2.5 -0.4
2.5 -0.4 3887.54
2.5 -0.3
2.5 -0.3 3887.54
2.5 -0.2
2.5 -0.2 3801.112
2.5 -0.1
2.5 -0.1 3869.488
2.5 0.0
2.5 0.0 3869.488
2.5 0.1
2.5 0.1 3843.696
2.5 0.2
2.5 0.2 3877.328
2.5 0.3
2.5 0.3 3888.488
2.5 0.4
2.5 0.4 3891.7799999999993
2.5 0.5
2.5 0.5 3891.7799999999993
2.5 0.6
2.5 0.6 3891.7799999999993
2.5 0.7
2.5 0.7 3909.8259999999996
2.5 0.8
2.5 0.8 3912.544
2.5 0.9
2.5 0.9 3912.544
2.5 1.0
2.5 1.0 3902.5119999999997
2.5 1.1
2.5 1.1 3862.4500000000007
2.5 1.2
2.5 1.2 3877.384
2.5 1.3
2.5 1.3 3813.792
2.5 1.4
2.5 1.4 3813.792
2.5 1.5
2.5 1.5 3813.792
2.5 1.6
2.5 1.6 3813.792
2.5 1.7
2.5 1.7 3910.6079999999997
2.5 1.8
2.5 1.8 3910.6079999999997
2.5 1.9
2.5 1.9 3841.696
2.5 2.0
2.5 2.0 3871.9959999999996
2.5 2.1
2.5 2.1 3863.0739999999996
2.5 2.2
2.5 2.2 3863.0739999999996
2.5 2.3
2.5 2.3 3863.0739999999996
2.5 2.4
2.5 2.4 3860.9960000000005
2.5 2.5
2.5 2.5 3870.936
2.5 2.6
2.5 2.6 3854.5820000000003
2.5 2.7
2.5 2.7 3901.938
2.5 2.8
2.5 2.8 3901.938
2.5 2.9
2.5 2.9 3901.938
2.6 -3.0
2.6 -3.0 3814.2229999999995
2.6 -2.9
2.6 -2.9 3852.3509999999997
2.6 -2.8
2.6 -2.8 3892.3709999999996
2.6 -2.7
2.6 -2.7 3892.3709999999996
2.6 -2.6
2.6 -2.6 3920.258999999999
2.6 -2.5
2.6 -2.5 3920.258999999999
2.6 -2.4
2.6 -2.4 3929.2189999999996
2.6 -2.3
2.6 -2.3 3969.869
2.6 -2.2
2.6 -2.2 3969.869
2.6 -2.1
2.6 -2.1 3943.051
2.6 -2.0
2.6 -2.0 3905.5209999999993
2.6 -1.9
2.6 -1.9 3911.327
2.6 -1.8
2.6 -1.8 3903.609999999999
2.6 -1.7
2.6 -1.7 3989.8019999999997
2.6 -1.6
2.6 -1.6 3939.9399999999996
2.6 -1.5
2.6 -1.5 3939.9399999999996
2.6 -1.4
2.6 -1.4 3939.9399999999996
2.6 -1.3
2.6 -1.3 3934.8119999999994
2.6 -1.2
2.6 -1.2 3977.374
2.6 -1.1
2.6 -1.1 3916.2419999999997
2.6 -1.0
2.6 -1.0 3916.2419999999997
2.6 -0.9
2.6 -0.9 3916.2419999999997
2.6 -0.8
2.6 -0.8 3887.8099999999995
2.6 -0.7
2.6 -0.7 3864.198
2.6 -0.6
2.6 -0.6 3874.29
2.6 -0.5
2.6 -0.5 3796.5139999999997
2.6 -0.4
2.6 -0.4 3796.5139999999997
2.6 -0.3
2.6 -0.3 3887.54
2.6 -0.2
2.6 -0.2 3801.112
2.6 -0.1
2.6 -0.1 3869.488
2.6 0.0
2.6 0.0 3865.37
2.6 0.1
2.6 0.1 3824.3779999999997
2.6 0.2
2.6 0.2 3877.328
2.6 0.3
2.6 0.3 3888.488
2.6 0.4
2.6 0.4 3891.7799999999993
2.6 0.5
2.6 0.5 3891.7799999999993
2.6 0.6
2.6 0.6 3891.7799999999993
2.6 0.7
2.6 0.7 3912.544
2.6 0.8
2.6 0.8 3912.544
2.6 0.9
2.6 0.9 3912.544
2.6 1.0
2.6 1.0 3892.462
2.6 1.1
2.6 1.1 3857.5580000000004
2.6 1.2
2.6 1.2 3850.0680000000007
2.6 1.3
2.6 1.3 3883.1020000000003
2.6 1.4
2.6 1.4 3883.1020000000003
2.6 1.5
2.6 1.5 3883.1020000000003
2.6 1.6
2.6 1.6 3813.792
2.6 1.7
2.6 1.7 3813.792
2.6 1.8
2.6 1.8 3889.928
2.6 1.9
2.6 1.9 3889.928
2.6 2.0
2.6 2.0 3920.228
2.6 2.1
2.6 2.1 3863.0739999999996
2.6 2.2
2.6 2.2 3863.0739999999996
2.6 2.3
2.6 2.3 3862.462
2.6 2.4
2.6 2.4 3860.9960000000005
2.6 2.5
2.6 2.5 3870.936
2.6 2.6
2.6 2.6 3854.5820000000003
2.6 2.7
2.6 2.7 3901.938
2.6 2.8
2.6 2.8 3901.938
2.6 2.9
2.6 2.9 3901.938
2.7 -3.0
2.7 -3.0 3814.2229999999995
2.7 -2.9
2.7 -2.9 3854.2429999999995
2.7 -2.8
2.7 -2.8 3892.3709999999996
2.7 -2.7
2.7 -2.7 3920.258999999999
2.7 -2.6
2.7 -2.6 3920.258999999999
2.7 -2.5
2.7 -2.5 3929.2189999999996
2.7 -2.4
2.7 -2.4 3971.603
2.7 -2.3
2.7 -2.3 3969.869
2.7 -2.2
2.7 -2.2 3969.869
2.7 -2.1
2.7 -2.1 3943.051
2.7 -2.0
2.7 -2.0 3921.6530000000002
2.7 -1.9
2.7 -1.9 3983.1619999999994
2.7 -1.8
2.7 -1.8 3989.8019999999997
2.7 -1.7
2.7 -1.7 3989.8019999999997
2.7 -1.6
2.7 -1.6 3939.9399999999996
2.7 -1.5
2.7 -1.5 3939.9399999999996
2.7 -1.4
2.7 -1.4 3939.9399999999996
2.7 -1.3
2.7 -1.3 3934.8119999999994
2.7 -1.2
2.7 -1.2 3977.374
2.7 -1.1
2.7 -1.1 3916.8679999999995
2.7 -1.0
2.7 -1.0 3916.2419999999997
2.7 -0.9
2.7 -0.9 3916.2419999999997
2.7 -0.8
2.7 -0.8 3887.8099999999995
2.7 -0.7
2.7 -0.7 3864.198
2.7 -0.6
2.7 -0.6 3864.198
2.7 -0.5
2.7 -0.5 3775.834
2.7 -0.4
2.7 -0.4 3796.5139999999997
2.7 -0.3
2.7 -0.3 3883.422
2.7 -0.2
2.7 -0.2 3865.37
2.7 -0.1
2.7 -0.1 3865.37
2.7 0.0
2.7 0.0 3865.37
2.7 0.1
2.7 0.1 3824.3779999999997
2.7 0.2
2.7 0.2 3824.3779999999997
2.7 0.3
2.7 0.3 3879.308
2.7 0.4
2.7 0.4 3891.7799999999993
2.7 0.5
2.7 0.5 3891.7799999999993
2.7 0.6
2.7 0.6 3891.7799999999993
2.7 0.7
2.7 0.7 3864.486
2.7 0.8
2.7 0.8 3912.544
2.7 0.9
2.7 0.9 3913.9240000000004
2.7 1.0
2.7 1.0 3913.9240000000004
2.7 1.1
2.7 1.1 3828.674000000001
2.7 1.2
2.7 1.2 3845.1760000000004
2.7 1.3
2.7 1.3 3870.2560000000003
2.7 1.4
2.7 1.4 3883.1020000000003
2.7 1.5
2.7 1.5 3883.1020000000003
2.7 1.6
2.7 1.6 3862.422
2.7 1.7
2.7 1.7 3862.422
2.7 1.8
2.7 1.8 3889.928
2.7 1.9
2.7 1.9 3920.228
2.7 2.0
2.7 2.0 3920.228
2.7 2.1
2.7 2.1 3863.0739999999996
2.7 2.2
2.7 2.2 3906.6620000000003
2.7 2.3
2.7 2.3 3862.462
2.7 2.4
2.7 2.4 3860.9960000000005
2.7 2.5
2.7 2.5 3860.9960000000005
2.7 2.6
2.7 2.6 3901.938
2.7 2.7
2.7 2.7 3901.938
2.7 2.8
2.7 2.8 3901.938
2.7 2.9
2.7 2.9 3987.248
2.8 -3.0
2.8 -3.0 3814.2229999999995
2.8 -2.9
2.8 -2.9 3854.2429999999995
2.8 -2.8
2.8 -2.8 3920.258999999999
2.8 -2.7
2.8 -2.7 3920.258999999999
2.8 -2.6
2.8 -2.6 3929.2189999999996
2.8 -2.5
2.8 -2.5 3971.603
2.8 -2.4
2.8 -2.4 3971.603
2.8 -2.3
2.8 -2.3 3969.869
2.8 -2.2
2.8 -2.2 3943.051
2.8 -2.1
2.8 -2.1 3943.051
2.8 -2.0
2.8 -2.0 3921.6530000000002
2.8 -1.9
2.8 -1.9 3968.1489999999994
2.8 -1.8
2.8 -1.8 3989.8019999999997
2.8 -1.7
2.8 -1.7 3939.9399999999996
2.8 -1.6
2.8 -1.6 3939.9399999999996
2.8 -1.5
2.8 -1.5 3939.9399999999996
2.8 -1.4
2.8 -1.4 3939.9399999999996
2.8 -1.3
2.8 -1.3 3934.8119999999994
2.8 -1.2
2.8 -1.2 3977.374
2.8 -1.1
2.8 -1.1 3909.7579999999994
2.8 -1.0
2.8 -1.0 3909.7579999999994
2.8 -0.9
2.8 -0.9 3916.2419999999997
2.8 -0.8
2.8 -0.8 3916.0559999999996
2.8 -0.7
2.8 -0.7 3864.198
2.8 -0.6
2.8 -0.6 3786.422
2.8 -0.5
2.8 -0.5 3782.304
2.8 -0.4
2.8 -0.4 3782.304
2.8 -0.3
2.8 -0.3 3862.742
2.8 -0.2
2.8 -0.2 3865.37
2.8 -0.1
2.8 -0.1 3865.37
2.8 0.0
2.8 0.0 3814.748
2.8 0.1
2.8 0.1 3824.3779999999997
2.8 0.2
2.8 0.2 3824.3779999999997
2.8 0.3
2.8 0.3 3824.3779999999997
2.8 0.4
2.8 0.4 3891.7799999999993
2.8 0.5
2.8 0.5 3891.7799999999993
2.8 0.6
2.8 0.6 3891.7799999999993
2.8 0.7
2.8 0.7 3864.486
2.8 0.8
2.8 0.8 3913.9240000000004
2.8 0.9
2.8 0.9 3913.9240000000004
2.8 1.0
2.8 1.0 3913.9240000000004
2.8 1.1
2.8 1.1 3828.674000000001
2.8 1.2
2.8 1.2 3880.08
2.8 1.3
2.8 1.3 3870.2560000000003
2.8 1.4
2.8 1.4 3849.5760000000005
2.8 1.5
2.8 1.5 3862.422
2.8 1.6
2.8 1.6 3862.422
2.8 1.7
2.8 1.7 3862.422
2.8 1.8
2.8 1.8 3903.788
2.8 1.9
2.8 1.9 3934.0879999999997
2.8 2.0
2.8 2.0 3977.808
2.8 2.1
2.8 2.1 3906.6620000000003
2.8 2.2
2.8 2.2 3906.6620000000003
2.8 2.3
2.8 2.3 3906.6620000000003
2.8 2.4
2.8 2.4 3860.9960000000005
2.8 2.5
2.8 2.5 3860.9960000000005
2.8 2.6
2.8 2.6 3901.938
2.8 2.7
2.8 2.7 3901.938
2.8 2.8
2.8 2.8 3901.938
2.8 2.9
2.8 2.9 4020.278
2.9 -3.0
2.9 -3.0 3842.111
2.9 -2.9
2.9 -2.9 3882.131
2.9 -2.8
2.9 -2.8 3920.258999999999
2.9 -2.7
2.9 -2.7 3929.2189999999996
2.9 -2.6
2.9 -2.6 3971.603
2.9 -2.5
2.9 -2.5 3971.4749999999995
2.9 -2.4
2.9 -2.4 3969.741
2.9 -2.3
2.9 -2.3 3969.741
2.9 -2.2
2.9 -2.2 3943.051
2.9 -2.1
2.9 -2.1 3960.917
2.9 -2.0
2.9 -2.0 3921.6530000000002
2.9 -1.9
2.9 -1.9 3921.6530000000002
2.9 -1.8
2.9 -1.8 3968.1489999999994
2.9 -1.7
2.9 -1.7 3939.9399999999996
2.9 -1.6
2.9 -1.6 3939.9399999999996
2.9 -1.5
2.9 -1.5 3939.9399999999996
2.9 -1.4
2.9 -1.4 3939.9399999999996
2.9 -1.3
2.9 -1.3 3934.8119999999994
2.9 -1.2
2.9 -1.2 3940.794
2.9 -1.1
2.9 -1.1 3940.794
2.9 -1.0
2.9 -1.0 3909.7579999999994
2.9 -0.9
2.9 -0.9 3909.7579999999994
2.9 -0.8
2.9 -0.8 3911.938
2.9 -0.7
2.9 -0.7 3919.2360000000003
2.9 -0.6
2.9 -0.6 3782.304
2.9 -0.5
2.9 -0.5 3782.304
2.9 -0.4
2.9 -0.4 3782.304
2.9 -0.3
2.9 -0.3 3797.026
2.9 -0.2
2.9 -0.2 3841.65
2.9 -0.1
2.9 -0.1 3841.65
2.9 0.0
2.9 0.0 3814.748
2.9 0.1
2.9 0.1 3824.3779999999997
2.9 0.2
2.9 0.2 3824.3779999999997
2.9 0.3
2.9 0.3 3824.3779999999997
2.9 0.4
2.9 0.4 3891.7799999999993
2.9 0.5
2.9 0.5 3891.7799999999993
2.9 0.6
2.9 0.6 3864.486
2.9 0.7
2.9 0.7 3865.8660000000004
2.9 0.8
2.9 0.8 3913.9240000000004
2.9 0.9
2.9 0.9 3913.9240000000004
2.9 1.0
2.9 1.0 3913.9240000000004
2.9 1.1
2.9 1.1 3828.674000000001
2.9 1.2
2.9 1.2 3880.08
2.9 1.3
2.9 1.3 3780.382
2.9 1.4
2.9 1.4 3849.5760000000005
2.9 1.5
2.9 1.5 3849.5760000000005
2.9 1.6
2.9 1.6 3862.422
2.9 1.7
2.9 1.7 3862.422
2.9 1.8
2.9 1.8 3892.722
2.9 1.9
2.9 1.9 3934.0879999999997
2.9 2.0
2.9 2.0 4019.692
2.9 2.1
2.9 2.1 4019.692
2.9 2.2
2.9 2.2 4019.692
2.9 2.3
2.9 2.3 3906.6620000000003
2.9 2.4
2.9 2.4 3862.462
2.9 2.5
2.9 2.5 3860.9960000000005
2.9 2.6
2.9 2.6 3901.938
2.9 2.7
2.9 2.7 4067.3759999999993
2.9 2.8
2.9 2.8 4067.3759999999993
2.9 2.9
2.9 2.9 4020.278